{"architecture": "separate_tanh", "layers": [{"weight": [[-0.12126804143190384, -0.14112691581249237, 0.12789882719516754, 0.003749072551727295, 0.05227566882967949, 0.03648730367422104, 0.03304548189043999, 0.16582363843917847, -0.08834066241979599, 0.11917245388031006, 0.07585320621728897, -0.15301327407360077, -0.07950453460216522, 0.17708903551101685, -0.059467047452926636, 0.05229439213871956, -0.014896322041749954, -0.05998535081744194, -0.11825107038021088, -0.053706832230091095, 0.013474720530211926, 0.021759390830993652, -0.0775940790772438, -0.17856153845787048, -0.02781040407717228, -0.08881770819425583, -0.006336676888167858, 0.11032486706972122, 0.010496968403458595, -0.23188535869121552, -0.04758080095052719, -0.09819407761096954, 0.017983004450798035, 0.056047964841127396, -0.08194959163665771, -0.10528793931007385, 0.1163247749209404, -0.011286941356956959, -0.023341407999396324, 0.08137437701225281, 0.010275554843246937, 0.03703997656702995, -0.08088181912899017, -0.0447448268532753, 0.020669015124440193, 0.17257030308246613, -0.06310781091451645, 0.07852648198604584, -0.1382896453142166, -0.01312416885048151, 0.1094624474644661, -0.027432844042778015, 0.052802592515945435, 0.019945327192544937, -0.028194718062877655, 0.017189685255289078, -0.2297443151473999, 0.0906410738825798, -0.05112997815012932, 0.090093694627285, -0.13740099966526031, -0.034305062144994736, 0.018988629803061485, -0.02211199514567852, 0.1625494509935379, -0.03326854109764099, 0.02410949394106865, -0.02581358700990677, -0.022564401850104332, 0.03402484953403473, 0.09694769233465195, 0.09334754198789597, 0.03731708601117134, 0.05266773700714111, -0.015011078678071499, -0.08643368631601334, -0.05250878632068634, 0.15231049060821533, 0.011688848957419395, 0.1136794462800026, 0.006167194806039333, 0.057271808385849, 0.059112221002578735, -0.007268988993018866, 0.026296941563487053, -0.03328435868024826, 0.15775780379772186, -0.12891514599323273, -0.028068820014595985, -0.06286191195249557, -0.04776090383529663, -0.008463247679173946, 0.1625872403383255, -0.05285977944731712, -0.18085864186286926, 0.07794404774904251, 0.14016371965408325, 0.023549765348434448, 0.042221516370773315, 0.10016097128391266, -0.010588962584733963, -0.1136808693408966, 0.12284806370735168, -0.15147936344146729, -0.1025979295372963, -0.053216602653265, -0.033219389617443085, 0.16363754868507385, 0.06489559262990952, 0.008832501247525215, -0.020261356607079506, 0.04970914125442505, -0.0003809662885032594, -0.09358439594507217, -0.07975926250219345, -0.06962970644235611, 0.09547480940818787, 0.05669961869716644, -0.06252842396497726, -0.08349893987178802, -0.17718391120433807, -0.008096729405224323, -0.0945771262049675, -0.015726158395409584, -0.18556948006153107, 0.018280547112226486, -0.0038829874247312546, -0.1421457678079605, -0.059130117297172546, -0.09548138082027435, 0.00585139449685812, -0.039842478930950165, 0.04804331436753273, 0.24481500685214996, -0.08616078644990921, 0.13733696937561035, -0.054154038429260254, 0.09498149156570435, -0.14696994423866272, -0.014350240118801594, -0.06436506658792496, 0.05830778181552887, 0.13004949688911438, -0.2160254716873169, -0.11074201762676239, 0.0639285072684288, 0.0353640578687191], [-0.15450666844844818, 0.0006284757400862873, -0.08353506028652191, -0.12325534224510193, -0.02937224507331848, -0.025728462263941765, -0.07127640396356583, 0.09904368966817856, -0.07415547221899033, 0.02409578673541546, -0.003766398411244154, -0.01662328653037548, 0.06245126575231552, -0.05034032464027405, 0.19849546253681183, -0.028561163693666458, 0.044290926307439804, 0.015043694525957108, 0.17510488629341125, -0.0034068317618221045, 0.03460177034139633, -0.00674331234768033, -0.023412782698869705, -0.10502902418375015, 0.16284948587417603, 0.23281511664390564, -0.04910554364323616, -0.016406647861003876, 0.0529949776828289, 0.019020354375243187, -0.058971699327230453, 0.02994764968752861, 0.03559885919094086, -0.05472135543823242, 0.06808575242757797, 0.10757964104413986, 0.031590066850185394, -0.054768480360507965, 0.049870967864990234, -0.10261282324790955, -0.06539569050073624, -0.08267450332641602, 0.00339386984705925, 0.0268633421510458, 0.08612570911645889, -0.034260254353284836, -0.10785644501447678, -0.05842134729027748, -0.09861565381288528, 0.08135776221752167, -0.13443729281425476, 0.09610263258218765, 0.0550709068775177, -0.05914309620857239, -0.05882682278752327, -0.17600634694099426, -0.08105674386024475, 0.048164624720811844, -0.04311453923583031, -0.11552652716636658, 0.07682646065950394, -0.14261475205421448, 0.08411306887865067, -0.04948268085718155, -0.11534643173217773, 0.013865060172975063, -0.2462155520915985, 0.10161824524402618, 0.012344177812337875, 0.19336356222629547, -0.04745931550860405, 0.07797932624816895, 0.027085840702056885, 0.08628875762224197, 0.056863684207201004, 0.056678447872400284, -0.026383165270090103, 0.03980254754424095, -0.012931431643664837, 0.03627009689807892, -0.13139896094799042, -0.06893423199653625, -0.18530628085136414, 0.047303516417741776, 0.05269322171807289, -0.05416794493794441, 0.02897176519036293, 0.023305650800466537, -0.05023656785488129, 0.002371214795857668, -0.15604038536548615, 0.05625635385513306, 0.031171724200248718, -0.11194369941949844, 0.040197767317295074, -0.08926156163215637, -0.15653030574321747, 0.11676933616399765, -0.12766143679618835, 0.03768713027238846, 0.03932824730873108, -0.09491828083992004, -0.06020345166325569, -0.004875498358160257, -0.1447450965642929, 0.17691364884376526, 0.060622382909059525, 0.26466524600982666, 0.228695809841156, 0.13883614540100098, -0.20145604014396667, 0.07225002348423004, 0.0808468610048294, -0.19858655333518982, 0.14106304943561554, 0.00938994251191616, -0.06797440350055695, -0.08324835449457169, 0.11282828450202942, -0.09337404370307922, 0.05619192123413086, 0.036850228905677795, -0.1550297886133194, 0.12870360910892487, 0.13581587374210358, 0.06783368438482285, 0.01940750889480114, 0.15012812614440918, 0.15868476033210754, 0.1015680655837059, -0.27963292598724365, 0.011841373518109322, 0.059597574174404144, 0.25164610147476196, -0.37288108468055725, 0.09900794923305511, 0.145026296377182, 0.13626646995544434, -0.34100601077079773, -0.0729358121752739, -0.03634503856301308, -0.03630875423550606, 0.05764587223529816, -0.06094249337911606, -0.0645199865102768, -0.1086660623550415, 0.16276460886001587], [0.0874493196606636, -0.120328888297081, 0.048656146973371506, 0.1246691644191742, -0.046956393867731094, 0.04473051056265831, -0.01724565587937832, 0.2014150619506836, 0.11414854228496552, 0.10066299885511398, -0.026231352239847183, 0.09399536997079849, 0.027260610833764076, -0.04760320112109184, -0.1027979925274849, -0.06325303018093109, -0.1025017648935318, -0.08233539015054703, -0.005572236143052578, 0.16506952047348022, -0.253141313791275, 0.004493767395615578, 0.04590589180588722, -0.11712880432605743, 0.024209361523389816, -0.007283579558134079, -0.09658292680978775, -0.1242067739367485, 0.2182069718837738, -9.790286276256666e-05, 0.09719949215650558, -0.06254278123378754, 0.011267924681305885, -0.10413172841072083, 0.12222814559936523, 0.06259496510028839, 0.1435234695672989, 0.06394879519939423, -0.07275179773569107, -0.08311770856380463, 0.014119741506874561, -0.046744368970394135, -0.1650373935699463, 0.038240283727645874, 0.06491415947675705, 0.11812057346105576, -0.1843731552362442, -0.0015806487062945962, -0.16772222518920898, 0.08087186515331268, -0.0031225509010255337, -0.007674699183553457, 0.11157152056694031, -0.0889744907617569, 0.02415001392364502, -0.03322786092758179, 0.20993149280548096, 0.08667078614234924, -0.030954208225011826, 0.08871007710695267, 0.10655786097049713, 0.06834696978330612, -0.018707124516367912, 0.13135984539985657, -0.15693150460720062, 0.00884626992046833, 0.031833715736866, -0.018447868525981903, 0.05981842800974846, -0.005894636269658804, -0.027837032452225685, -0.19420300424098969, -0.02526247873902321, 0.014298805966973305, -0.06568118184804916, -0.06664378941059113, -0.006404697895050049, 0.065741628408432, -0.10709501057863235, -0.10783969610929489, 0.03242632746696472, -0.1226981058716774, -0.0023911765310913324, -0.04325423389673233, 0.03769226372241974, 0.09366344660520554, 0.09565425664186478, -0.010053674690425396, -0.09747958183288574, 0.10938740521669388, -0.11501066386699677, 0.02325824648141861, 0.06961780041456223, 0.023418178781867027, 0.05667470023036003, -0.07576635479927063, 0.04848016798496246, 0.0020185578614473343, -0.007088024169206619, 0.0038142341654747725, -0.04833527281880379, -0.11095719039440155, -0.011283637955784798, -0.07102421671152115, 0.09019312262535095, 0.04648805409669876, -0.04282766953110695, -0.021033160388469696, 0.0951623022556305, -0.017893610522150993, 0.05170917510986328, 0.08619596064090729, 0.09274201095104218, 0.09836935251951218, -0.1649152636528015, 0.03180307149887085, -0.02569258213043213, 0.16510480642318726, -0.02549649588763714, -0.04264611750841141, 0.19360287487506866, 0.17619237303733826, -0.027072325348854065, -0.04270222783088684, 0.0891796126961708, 0.06806369870901108, -0.0906677320599556, 0.029007239267230034, 0.061886321753263474, -0.028372718021273613, 0.0014988022157922387, 0.011957176961004734, 0.041538745164871216, -0.036876000463962555, -0.09385945647954941, 0.07694825530052185, -0.024753564968705177, 0.0977938249707222, -0.2751217186450958, -0.02319803647696972, 0.010444690473377705, 0.001583270262926817, -0.07505220174789429, -0.09849333018064499, -0.1267770230770111, 0.07081695646047592, -0.10598945617675781], [0.09232757240533829, -0.12532135844230652, 0.1681717485189438, -0.09371127188205719, -0.017378291115164757, -0.1726379245519638, -0.07856602221727371, 0.10707927495241165, -0.02373243123292923, 0.10050664842128754, -0.03295472264289856, 0.066073477268219, 0.06766889989376068, -0.0009599390905350447, -0.09613460302352905, 0.12251558899879456, -0.09059334546327591, -0.12246774882078171, -0.1292111724615097, -0.047058071941137314, 0.06582159548997879, -0.018660346046090126, -0.08400310575962067, 0.007298819720745087, 0.11881545931100845, 0.04904384911060333, -0.032420605421066284, -0.05910717695951462, 0.012542977929115295, -0.007084943354129791, 0.044247519224882126, 0.07337050884962082, 0.09200316667556763, 0.015777558088302612, 0.0344056598842144, 0.02390122041106224, -0.17575399577617645, 0.08291734755039215, -0.03983663022518158, -0.050702836364507675, -0.0022963969968259335, -0.05435926094651222, -0.03611638769507408, 0.10990697890520096, -0.047299668192863464, 0.07795192301273346, 0.09935306012630463, -0.2617878317832947, -0.05715979263186455, 0.012311878614127636, -0.13033564388751984, 0.013388758525252342, -0.06388882547616959, 0.016369109973311424, -0.04099835082888603, 0.07284557074308395, -0.1389051228761673, 0.08887553215026855, -0.14636503159999847, 0.25264090299606323, -0.11439470946788788, 0.005955046508461237, -0.1432260274887085, -0.044851694256067276, 0.032870691269636154, 0.0011302747298032045, 0.072451151907444, 0.007805122062563896, 0.045414477586746216, 0.018783096224069595, 0.2047136276960373, 0.015154113993048668, -0.07576233893632889, 0.05830582231283188, -0.04252789914608002, -0.14107000827789307, -0.10384472459554672, -0.007229037117213011, 0.11160678416490555, 0.14569245278835297, 0.1216685026884079, -0.03566689044237137, 0.13867448270320892, -0.0007693889201618731, 0.007401490118354559, 0.05004594847559929, 0.061493583023548126, -0.009801923297345638, 0.1013314425945282, -0.09265287220478058, -0.13499686121940613, -0.07993153482675552, 0.05611209198832512, 0.003940634895116091, 0.09958858042955399, -0.09421048313379288, 0.0005198060534894466, 0.1403583586215973, 0.04061824828386307, -0.027141856029629707, 0.1000186875462532, 0.10331104695796967, 0.02196539007127285, 0.07105247676372528, -0.053299155086278915, -0.12720859050750732, -0.00012851509382016957, -0.16524170339107513, -0.1890844702720642, -0.11061077564954758, 0.18608497083187103, 0.18201248347759247, 0.056156326085329056, 0.13339465856552124, -0.12361055612564087, -0.057512540370225906, 0.24575664103031158, 0.2476615011692047, 0.1222141906619072, -0.006384918466210365, 0.05868740379810333, 0.09032481908798218, 0.1088792160153389, -0.07008789479732513, -0.09073381125926971, -0.011942530050873756, 0.11555559933185577, 0.18617893755435944, -0.1302192360162735, 0.10656190663576126, 0.08086328208446503, 0.09385327249765396, -0.012603787705302238, -0.04041663929820061, 0.1171267032623291, -0.11418109387159348, -0.08297690749168396, 0.07085113227367401, 0.20570164918899536, 0.03007313422858715, 0.15611377358436584, -0.1452740579843521, 0.07705017179250717, -0.14267411828041077, -0.023531896993517876, 0.03384510055184364, -0.035114582628011703], [-0.0014899603556841612, 0.051892735064029694, 0.08165062218904495, 0.19404074549674988, 0.14967581629753113, 0.060102999210357666, -0.12803001701831818, -0.015888988971710205, -0.04542252793908119, 0.03220362961292267, 0.028161322697997093, 0.04553578794002533, 0.15501417219638824, -0.1805701106786728, 0.03330812230706215, 0.05778026580810547, 0.006291897501796484, -0.029082145541906357, 0.02889922261238098, -0.030518827959895134, -0.02523781731724739, -0.0003482406900729984, -0.0800895020365715, 0.04113084450364113, -0.0190378837287426, 0.008622310124337673, 0.045721352100372314, -0.018575340509414673, -0.06520138680934906, 0.08834310621023178, -0.016867460682988167, 0.11619224399328232, -0.06587226688861847, 0.0018283154349774122, -0.15041567385196686, 0.1893022060394287, 0.005514424294233322, -0.07295301556587219, 0.10496711730957031, 0.034166429191827774, -0.17010453343391418, 0.018058208748698235, 0.08013873547315598, -0.011925004422664642, 0.04497326537966728, 0.20424889028072357, -0.11263898760080338, -0.11260858923196793, -0.15414009988307953, 0.03773033618927002, 0.12541386485099792, -0.000860918196849525, 0.08219808340072632, -0.017319627106189728, 0.07186200469732285, 0.09249389916658401, -0.005142131354659796, 0.04890456795692444, 0.04849518835544586, -0.14326061308383942, -0.06476770341396332, 0.03870619088411331, -0.06744334846735, -0.004597158636897802, -0.01587533950805664, 0.052962660789489746, -0.15135504305362701, 0.014613715931773186, 0.10883329063653946, -0.0791173055768013, -0.10977111011743546, -0.008649076335132122, -0.024103576317429543, -0.07717258483171463, 0.10860578715801239, -0.07229053229093552, -0.04156744107604027, 0.0573379322886467, 0.10375116765499115, 0.08111060410737991, 0.011068932712078094, -0.12624245882034302, 0.14363403618335724, -0.04102631285786629, -0.050352271646261215, 0.10127488523721695, 0.1508975625038147, -0.029747579246759415, 0.04168682172894478, 0.19277293980121613, -0.01598474197089672, 0.03845315799117088, -0.1447039395570755, -0.10219459980726242, 0.08502725511789322, 0.04734402149915695, -0.131028413772583, 0.07433938980102539, -0.1487436294555664, -0.009088759310543537, 0.019581735134124756, 0.050101276487112045, 0.16763454675674438, 0.08021433651447296, -0.007916949689388275, -0.10243048518896103, -0.11172773689031601, -0.07440055906772614, 0.15880191326141357, 0.22778424620628357, -0.012381395325064659, -0.006486213766038418, 0.01011018455028534, 0.13585703074932098, 0.3564739525318146, 0.0907231941819191, 3.889313666149974e-05, -0.16836419701576233, -0.04327566921710968, 0.05768909305334091, 0.06638968735933304, 0.05097588896751404, -0.060847509652376175, -0.1355324238538742, -0.1565738320350647, 0.058377705514431, -0.1031104177236557, 0.02312231808900833, 0.020879775285720825, 0.0452735535800457, 0.21468620002269745, -0.0317780040204525, -0.06630570441484451, -0.11494870483875275, 0.5291823148727417, 0.19965532422065735, -0.14891721308231354, -0.10210561752319336, 0.3966434895992279, 0.10657186806201935, -0.03641808032989502, -0.11671894043684006, 0.037857308983802795, -0.0636008083820343, -0.05879135802388191, 0.10660894215106964, -0.07455708831548691], [-0.05036434158682823, 0.17071831226348877, -0.08015092462301254, -0.04738973453640938, -0.006080644205212593, -0.13129737973213196, 0.18476344645023346, 0.003203675150871277, 0.10317827761173248, 0.0328344963490963, 0.03672029823064804, -0.18030089139938354, 0.1141483262181282, 0.010073201730847359, 0.011448273435235023, -0.15917296707630157, 0.08036183565855026, -0.007140767760574818, 0.045708026736974716, 0.19766728579998016, -0.0008455657516606152, 0.043187789618968964, 0.039578624069690704, -0.07249954342842102, 0.10741420835256577, -0.014881475828588009, 0.032314613461494446, -0.03400282561779022, 0.011010885238647461, 0.15449614822864532, 0.13607540726661682, 0.019430434331297874, -0.05501633137464523, 0.1556553691625595, 0.01357726939022541, -0.04211582615971565, 0.21490049362182617, 0.09938139468431473, -0.07480315864086151, 0.03712860867381096, 0.01732894591987133, -0.09118465334177017, 0.005729056894779205, 0.16456593573093414, 0.04939059540629387, 0.14954756200313568, -0.0878010168671608, 0.08672967553138733, 0.10026214271783829, -0.05656801909208298, 0.02917569689452648, -0.015450781211256981, 0.06520473212003708, 0.04384874179959297, -0.06794483959674835, 0.07130865752696991, -0.005157767329365015, -0.0535266287624836, -0.02744256891310215, -0.006324904505163431, -0.027967220172286034, 0.029442111030220985, -0.17646430432796478, 0.012590455822646618, 0.10911723971366882, 0.04260161146521568, 0.03776998072862625, 0.03203097730875015, 0.06286733597517014, 0.17070063948631287, -0.05436170473694801, -0.021288933232426643, 0.14772364497184753, -0.030095640569925308, 0.011842483654618263, -0.022540416568517685, -0.013238700106739998, 0.014092975296080112, -0.06791895627975464, 0.11885950714349747, 0.07582694292068481, -0.007812559604644775, -0.058213330805301666, 0.030761586502194405, 0.11311952024698257, -0.08673952519893646, 0.06523746252059937, -0.06291225552558899, 0.1253216713666916, -0.18149104714393616, -0.011345412582159042, 0.08549992740154266, 0.044976864010095596, -0.01070482563227415, 0.06683918088674545, -0.02218390628695488, 0.07401880621910095, 0.08922338485717773, -0.09401848912239075, 0.06721246242523193, 0.10769515484571457, -0.04952632263302803, -0.069700688123703, -0.05043667182326317, -0.17341043055057526, 0.05582302808761597, 0.19333384931087494, 0.15798798203468323, -0.055893879383802414, 0.09697751700878143, -0.26205816864967346, -0.0967864841222763, -0.07686307281255722, 0.001027942867949605, 0.1611422598361969, 0.07945654541254044, -0.21081167459487915, -0.043883439153432846, -0.07477621734142303, 0.0014323743525892496, 0.040408503264188766, 0.08508364856243134, -0.0377693735063076, 0.12317013740539551, -0.22505387663841248, 0.05261842533946037, -0.18019282817840576, 0.020197978243231773, 0.0376041978597641, -0.06489520519971848, 0.0030743959359824657, -0.13278043270111084, -0.05098516866564751, 0.00929880142211914, -0.24800924956798553, 0.08346150070428848, -0.009674071334302425, 0.06753557175397873, -0.2562851905822754, 0.17455469071865082, -0.10410071909427643, -0.16288797557353973, -0.003305962076410651, -0.018825659528374672, -0.052485767751932144, 0.009068763814866543, -0.1166849285364151], [0.16925938427448273, -0.10493233054876328, 0.016197901219129562, -0.19717171788215637, -0.009794410318136215, -0.0019112847512587905, -0.09018458425998688, -0.06406338512897491, -0.09119479358196259, -0.09780845791101456, -0.01769973151385784, -0.051920074969530106, -0.01572437211871147, -0.031147761270403862, -0.12078262865543365, 0.11054346710443497, -0.06278054416179657, 0.06879789382219315, 0.08658713102340698, 0.10075592994689941, 0.03945859149098396, -0.03560446947813034, -0.014776789583265781, -0.05426707863807678, -0.021139374002814293, -0.08637547492980957, 0.01820950023829937, -0.09617356956005096, -0.0900307223200798, 0.12639522552490234, 0.0876888558268547, -0.1134101152420044, -0.07955071330070496, -0.06094808876514435, -0.1144980639219284, 0.1768959015607834, 0.030132057145237923, 0.19457405805587769, 0.09365448355674744, 0.06123332306742668, -0.10940507799386978, -0.08053360134363174, -0.02419857308268547, -0.05020732060074806, 0.21611957252025604, 0.05974912270903587, 0.09394103288650513, -0.08263543993234634, 0.06257566809654236, -0.050973787903785706, 0.048025455325841904, 0.04006939008831978, -0.07131006568670273, -0.04361870884895325, -0.03908697888255119, -0.01530903298407793, 0.020986804738640785, -0.023601137101650238, 0.004459037911146879, -0.0010624212445691228, -0.0059787859208881855, 0.0056023248471319675, 0.015158665366470814, -0.022690758109092712, -0.04077894985675812, 0.17485354840755463, -0.12637539207935333, 0.014432117342948914, 0.04616670683026314, 0.10253098607063293, 0.0601278692483902, 0.10319938510656357, 0.06367334723472595, 0.06186782941222191, -0.12216395884752274, 0.053685758262872696, -0.16981695592403412, 0.11644326895475388, 0.11362513899803162, 0.04066998139023781, 0.061992667615413666, -0.07622361183166504, 0.12023331969976425, -0.029122697189450264, 0.03491758182644844, 0.050314370542764664, -0.15316343307495117, -0.16724182665348053, -0.008894195780158043, -0.021544843912124634, -0.005079264286905527, 0.10583654046058655, -0.014656662940979004, -0.12595289945602417, 0.14612151682376862, 0.05451004579663277, 0.07032336294651031, -0.011555811390280724, 0.05673181265592575, -0.02184826321899891, -0.10084881633520126, 0.11088503152132034, 0.16948631405830383, 0.19482462108135223, -0.048822566866874695, -0.24907106161117554, -0.08501681685447693, -0.1745203286409378, -0.07994896173477173, 0.030208760872483253, 0.17640037834644318, 0.13769486546516418, 0.07374327629804611, -0.03101993538439274, 0.0541415773332119, -0.0274236798286438, 0.14734302461147308, -0.04498346522450447, 0.043437544256448746, -0.22596387565135956, -0.0820237472653389, -0.04288659617304802, 0.09229052811861038, 0.05565246567130089, -0.05223418399691582, -0.06024685502052307, 0.09461552649736404, 0.19736698269844055, -0.09079774469137192, 0.06867767125368118, 0.09362035989761353, -0.0973343625664711, 0.03405998274683952, -0.21314480900764465, 0.3801174759864807, 0.033230237662792206, -0.10965891927480698, -0.020762961357831955, 0.10739146918058395, 0.08548504114151001, -0.05969169735908508, 0.027490057051181793, -0.1230698823928833, -0.14985844492912292, -0.059097129851579666, -0.01156893465667963, 0.14217811822891235], [-0.003311161883175373, -0.0358872264623642, -0.025658657774329185, 0.05292791128158569, 0.023652100935578346, 0.07699675858020782, -0.2313569337129593, 0.09170452505350113, 0.03572842851281166, 0.1144406795501709, 0.10157646238803864, -0.035393357276916504, 0.03659722954034805, -0.1056111752986908, -0.1542741060256958, 0.030308356508612633, -0.08084052801132202, -0.028863685205578804, -0.05928120017051697, -0.011771444231271744, 0.2535240650177002, -0.06320298463106155, -0.062345582991838455, -0.016523905098438263, -0.013084541074931622, 0.0823776125907898, 0.05435020849108696, -0.0319402739405632, -0.017546148970723152, 0.07262574136257172, -0.07342971861362457, 0.1897159069776535, 0.0011225227499380708, -0.008205470629036427, 0.2023337334394455, -0.007833934389054775, 0.027496127411723137, 0.21450497210025787, -0.054092101752758026, 0.06493246555328369, 0.11911719292402267, 0.26070889830589294, 0.033036306500434875, 0.20028775930404663, -0.004608352668583393, 0.042883045971393585, 0.09290870279073715, 0.01138856541365385, -0.0938432514667511, -0.009427294135093689, -0.005665757693350315, 0.08748306334018707, 0.014467715285718441, 0.14818257093429565, -0.016701985150575638, 0.005638572853058577, 0.045188531279563904, 0.0008319737971760333, 0.007197391241788864, -0.04940376430749893, 0.12728779017925262, 0.020152704790234566, 0.09102839976549149, 0.022767653688788414, 0.0392959900200367, -0.04506002366542816, -0.03667375072836876, -0.06074417009949684, -0.03169664368033409, 0.06648927927017212, -0.14154258370399475, 0.060432832688093185, -0.027486279606819153, 0.10519220679998398, 0.06242799758911133, -0.10960858315229416, 0.14055638015270233, -0.1091122031211853, 0.2109181135892868, 0.11227896809577942, 0.04508344829082489, -0.03232777491211891, -0.049707382917404175, -0.0484631285071373, 0.08253508806228638, -0.04034588858485222, -0.18870265781879425, -0.10707346349954605, 0.05331892892718315, -0.19109617173671722, 0.14011341333389282, -0.09333611279726028, 0.16079802811145782, -0.06790682673454285, 0.04271898418664932, 0.06706416606903076, 0.1254742294549942, 0.04035865515470505, 0.07557681947946548, -0.1418675184249878, -0.10575170069932938, 0.02575591392815113, 0.12280472368001938, 0.1253499984741211, -0.035432230681180954, -0.018522825092077255, 0.059692513197660446, 0.15942759811878204, -0.02466101385653019, -0.15956732630729675, 0.12795019149780273, 0.02517426386475563, -0.15208864212036133, -0.10468316078186035, -0.15828564763069153, -0.03666580840945244, 0.01542576588690281, 0.2117660641670227, 0.09256324917078018, 0.11169054359197617, -0.03424031287431717, 0.21282051503658295, 0.0818263366818428, 0.0800790786743164, 0.07329689711332321, 0.05018063634634018, 0.13778695464134216, 0.08773471415042877, -0.038311395794153214, 0.019049715250730515, -0.07976514101028442, 0.11430574953556061, -0.07503657042980194, 0.09401379525661469, -0.10333188623189926, 0.10065297037363052, 0.0228290818631649, 0.04204436391592026, -0.049718212336301804, -0.1041012778878212, 0.03248917683959007, 0.07756830006837845, 0.140448659658432, 0.16024428606033325, 0.29158008098602295, -0.10690329223871231, -0.07301930338144302], [0.054673708975315094, 0.1040649563074112, 0.0009736984502524137, -0.10681524127721786, -0.16963467001914978, -0.020303210243582726, 0.2427876591682434, 0.0862150490283966, 0.03368505463004112, -0.015133331529796124, 0.10862299799919128, -0.1254938244819641, -0.019317321479320526, -0.05448091775178909, -0.025380853563547134, -0.007452262099832296, -0.13141576945781708, -0.08047706633806229, 0.04203297570347786, 0.004106349777430296, -0.21483661234378815, -0.014417733065783978, 0.0769558995962143, -0.09079750627279282, -0.0425235889852047, 0.06284549087285995, -0.04244541376829147, -0.08624770492315292, 0.0010196464136242867, -0.1470768004655838, -0.04903532564640045, -0.005508750211447477, 0.04170368239283562, 0.13244277238845825, 0.13352607190608978, 0.2288498729467392, -0.045257873833179474, 0.06810251623392105, 0.11539145559072495, 0.18328875303268433, -0.01908307708799839, -0.02746039442718029, 0.18970486521720886, 0.17182008922100067, 0.03152437135577202, 0.02631387487053871, -0.0360238179564476, 0.08555582910776138, -0.11248844861984253, 0.032226137816905975, 0.021401993930339813, -0.023722853511571884, 0.08625345677137375, 0.1085219457745552, 0.18245829641819, 0.0077987308613955975, -0.11363544315099716, -0.04151115566492081, -0.00446386868134141, -0.08799944072961807, 0.04094717651605606, 0.036180052906274796, -0.006238522473722696, -0.08235206454992294, -0.005852368660271168, 0.07563775032758713, 0.08655664324760437, 0.16921654343605042, -0.08873369544744492, 0.06433121860027313, -0.03927019611001015, 0.011556628160178661, 0.010966241359710693, 0.029230952262878418, 0.14808735251426697, 0.09685412794351578, 0.20824797451496124, 0.10347334295511246, -0.0016428072704002261, 0.026339661329984665, 0.10774041712284088, 0.04387999325990677, 0.11375892162322998, -0.21616250276565552, -0.036347903311252594, -0.09154416620731354, 0.11085866391658783, -0.0991535633802414, 0.007728231139481068, 0.01057097502052784, -0.014372224919497967, 0.07801328599452972, -0.16701851785182953, -0.09326168149709702, 0.07485281676054001, 0.05776159092783928, -0.035809967666864395, 0.027057886123657227, -0.06952063739299774, 0.023620210587978363, -0.10137195140123367, -0.007638243958353996, -0.16282221674919128, 0.008531805127859116, 0.21934874355793, 0.06421136856079102, -0.06982068717479706, -0.02859709970653057, 0.08707479387521744, 0.06915511190891266, -0.06363292038440704, 0.0035505329724401236, 0.10855187475681305, -0.04131865128874779, 0.039165277034044266, -0.08450010418891907, -0.0016804806655272841, -0.1476699411869049, -0.035870686173439026, 0.09507055580615997, -0.05909951403737068, -0.008780796080827713, -0.027143826708197594, 0.06830750405788422, 0.06251343339681625, 0.20321013033390045, -0.029516927897930145, 0.06922706216573715, 0.007842453196644783, 0.01999085582792759, 0.13543124496936798, 0.04094996303319931, -0.09436862915754318, -0.08442331850528717, 0.11992157995700836, 0.007673123385757208, -0.19655741751194, -0.09048949927091599, 0.07427986711263657, 0.22628290951251984, -0.11601001769304276, 0.05292399972677231, -0.10244940221309662, 0.16208256781101227, 0.09027572721242905, 0.21450011432170868, 0.005147669464349747], [-0.0837719738483429, -0.009532379917800426, -0.12483253329992294, -0.05396440625190735, -0.0746525377035141, -0.03183288872241974, -0.07791215926408768, -0.10322029143571854, 0.16460618376731873, 0.035008031874895096, 0.0605684258043766, 0.11297358572483063, 0.015035349875688553, 0.16256985068321228, 0.12931714951992035, 0.022726397961378098, -0.1264674812555313, 0.11741906404495239, 0.062876857817173, -0.0802166536450386, -0.010665345005691051, 0.06661619991064072, 0.009555799886584282, -0.09732760488986969, -0.1850198358297348, 0.05468050017952919, 0.061978861689567566, -0.027012690901756287, 0.007542013190686703, 0.008189496584236622, 0.05822334811091423, -0.012484012171626091, -0.1548829972743988, -0.008031720295548439, -0.06788910925388336, -0.14134135842323303, 0.03213461488485336, 0.041256412863731384, -0.11207738518714905, 0.07058954983949661, -0.020662955939769745, 0.10576755553483963, 0.06348346173763275, 0.026845747604966164, -0.07573036104440689, 0.19397087395191193, -0.031639959663152695, 0.0205998457968235, 0.00604358222335577, 0.04154869541525841, 0.023949729278683662, -0.11498851329088211, -0.020553594455122948, -0.043532904237508774, 0.03802702575922012, -0.051622550934553146, -0.05679139122366905, 0.06881697475910187, -0.2151356339454651, 0.13225138187408447, 0.005381403025239706, 0.0017589859198778868, -0.06682026386260986, 0.16169093549251556, -0.04109545424580574, 0.015745585784316063, 0.03821009024977684, 0.04846898093819618, 0.002051981631666422, 0.062019798904657364, 0.06669846177101135, 0.21346598863601685, 0.025729134678840637, -0.14609786868095398, 0.08862783014774323, 0.12999098002910614, 0.08400074392557144, -0.08424463123083115, -0.030806975439190865, 0.04053928330540657, 0.006667977198958397, 0.14698757231235504, 0.07589060813188553, -0.10674716532230377, -0.14296415448188782, -0.013210181146860123, -0.31205078959465027, 0.03027377463877201, 0.009509985335171223, 0.2167811393737793, -0.04127166047692299, 0.08905695378780365, 0.13992208242416382, -0.04200591892004013, 0.1501840054988861, 0.015616273507475853, -0.16802752017974854, 0.09134434908628464, 0.07656793296337128, 0.09653910994529724, -0.05567080155014992, 0.09340234100818634, 0.0527942068874836, 0.044316139072179794, 0.0373835451900959, 0.031247340142726898, -0.12769362330436707, -0.06878507137298584, 0.1181967481970787, -0.09429890662431717, -0.06756189465522766, 0.11571131646633148, 0.0003756223013624549, 0.0465070866048336, 0.1614256054162979, 0.05361824482679367, -0.10177880525588989, -0.09948057681322098, -0.15172208845615387, 0.030895764008164406, -0.15012043714523315, -0.02267376147210598, -0.1027550995349884, 0.072390116751194, -0.0036626337096095085, 0.007837507873773575, -0.062204524874687195, 0.07091312110424042, -0.04025443643331528, -0.01994059793651104, 0.06159016489982605, 0.041208915412425995, 0.10893391817808151, 0.09681961685419083, 0.3384089767932892, 0.1490877866744995, -0.022572901099920273, -0.011564175598323345, 0.21173325181007385, 0.07671113312244415, -0.21629467606544495, 0.04435737431049347, -0.03864314407110214, -0.05169563367962837, -0.07907293736934662, 0.14168906211853027, -0.034262027591466904], [0.1709061712026596, -0.046498607844114304, -0.02321821078658104, 0.03623628988862038, -0.13612143695354462, 0.008719651959836483, -0.13399364054203033, 0.21490250527858734, -0.13545013964176178, 0.012997712008655071, -0.0037079716566950083, -0.013472462072968483, 0.031432487070560455, 0.0836230143904686, -0.02283264882862568, 0.1393676996231079, 0.04108017310500145, 0.07531805336475372, 0.10945072025060654, -0.09989965707063675, -0.05771852284669876, -0.02648889273405075, 0.12234991788864136, 0.048507340252399445, 0.08760781586170197, 0.07047389447689056, 0.05352518707513809, 0.026587428525090218, 0.0004097238997928798, 0.13444766402244568, -0.20546525716781616, -0.09272266924381256, 0.008084933273494244, 0.04718073084950447, -0.03965771943330765, 0.05065444856882095, 0.01682533696293831, 0.09682705998420715, -0.00664588063955307, 0.03812836483120918, -0.03994305804371834, 0.035938721150159836, 0.12646067142486572, 0.22589921951293945, 0.13516059517860413, 0.03854040428996086, -0.2656202018260956, -0.0354488268494606, -0.10231631249189377, -0.018838370218873024, 0.012759038247168064, 0.01782231032848358, 0.09034771472215652, -0.031121138483285904, -0.030865728855133057, 0.00391424261033535, -0.20254269242286682, 0.07153303921222687, 0.1563950479030609, -0.014080117456614971, -0.04539543762803078, -0.07258401066064835, 0.011860850267112255, 0.07938355952501297, -0.021929359063506126, 0.03408239036798477, -0.05852239578962326, -0.008813702501356602, -0.0362095907330513, -0.10165700316429138, 0.07642360031604767, 0.1160912737250328, -0.058989718556404114, -0.17251324653625488, -0.11868901550769806, 0.003868034342303872, 0.02699113078415394, -0.021379167214035988, -0.015783661976456642, 0.07759976387023926, -0.0032842550426721573, 0.05864110589027405, 0.01815391331911087, 0.05816926062107086, -0.0871625542640686, 0.14981521666049957, -0.021642174571752548, -0.020676199346780777, 0.13246649503707886, -0.057269562035799026, 0.02027897536754608, -0.039301637560129166, 0.023009074851870537, -0.07193916290998459, 0.05965007096529007, -0.11381764709949493, 0.07838379591703415, -0.03184572607278824, 0.008682605810463428, -0.07181726396083832, 0.05793314427137375, -0.05837719887495041, -0.07715453952550888, 0.1574784517288208, -0.13059589266777039, 0.009815226309001446, 0.20697219669818878, 0.07392526417970657, 0.07548044621944427, -0.09598193317651749, 0.07222631573677063, 0.15503384172916412, -0.03346806392073631, 0.0374189130961895, -0.08896256983280182, -0.19598674774169922, -0.06604570895433426, 0.1746668964624405, -0.07595604658126831, -0.03717127814888954, 0.11463727056980133, -0.011033180169761181, 0.0694156214594841, -0.009006187319755554, -0.08346422761678696, 0.026133866980671883, -0.07309515029191971, -0.08360666781663895, 0.12531304359436035, 0.10137439519166946, -0.04824135825037956, 0.07056719809770584, -0.11792854219675064, 0.09112240374088287, -0.33353301882743835, -0.017155909910798073, 0.04599225893616676, -0.06811521202325821, -0.2773509621620178, -0.10992767661809921, 0.04954851046204567, 0.16607731580734253, -0.03980031609535217, 0.45197588205337524, 0.22523854672908783, -0.04889471456408501, -0.11380284279584885], [0.10566490143537521, 0.040667448192834854, -0.018540384247899055, 0.037669796496629715, -0.09869857877492905, -0.04486832767724991, -0.021957654505968094, -0.06373577564954758, -0.14214123785495758, 0.08200418949127197, 0.17576053738594055, -0.07411353290081024, -0.15281222760677338, -0.08195877075195312, 0.0211844053119421, 0.02559058740735054, 0.029480015859007835, 0.05414492264389992, -0.030732737854123116, 0.040304332971572876, -0.16296713054180145, -0.08030183613300323, 0.07185725122690201, -0.026566147804260254, -0.04614946246147156, 0.06498048454523087, -0.009474392980337143, -0.05944132059812546, -0.1777871698141098, 0.02612503618001938, 0.10404395312070847, -0.10304863750934601, 0.002824387513101101, -0.08614866435527802, 0.06537576019763947, -0.036104291677474976, 0.1728232353925705, -0.0919572189450264, -0.09956679493188858, -0.06440670788288116, -0.16848976910114288, 0.02391643077135086, 0.02404150739312172, -0.09658575803041458, 0.10069406777620316, -0.018664561212062836, -0.13712720572948456, -0.06365342438220978, 0.004667890723794699, -0.13273966312408447, -0.05660619959235191, -0.07632912695407867, -0.06974035501480103, 0.03682626783847809, -0.013700694777071476, -0.08960599452257156, -0.012235921807587147, 0.11215480417013168, 0.06031792238354683, 0.0034413435496389866, 0.01798374019563198, -0.02002449706196785, -0.159723162651062, 0.17187999188899994, -0.08859612792730331, -0.07706014066934586, -0.04816741868853569, 0.06275833398103714, 0.0032598571851849556, 0.04705025628209114, 0.16539955139160156, 0.0822257548570633, -6.576688610948622e-05, -0.030094413086771965, 0.24566031992435455, -0.10674912482500076, -0.20101548731327057, 0.015750020742416382, -0.10993260145187378, -0.0670776292681694, -0.06830032914876938, -0.05652147904038429, -0.08499342948198318, 0.008784064091742039, 0.13103452324867249, -0.0581432469189167, -0.07520494610071182, -0.020834175869822502, -0.05555956810712814, 0.0794985294342041, -0.11271969974040985, -0.10504312068223953, -0.00028537504840642214, -0.040153540670871735, 0.004674152936786413, 0.010009200312197208, 0.08038198202848434, -0.04750090092420578, 0.07722680270671844, 0.026729842647910118, 0.05348494276404381, -0.08427173644304276, -0.10701487213373184, -0.11183171719312668, 0.0906023159623146, 0.2464606761932373, 0.10471468418836594, 0.21270549297332764, -0.04707060754299164, -0.054149795323610306, -0.07817380875349045, -0.09897935390472412, -0.041484981775283813, -0.1168568953871727, -0.015141472220420837, 0.02524411678314209, -0.09369557350873947, 0.09477626532316208, -0.02535836584866047, 0.009791562333703041, 0.1323799341917038, -0.03820258006453514, 0.060751963406801224, 0.2484206259250641, 0.10127725452184677, 0.027787311002612114, 0.08867932856082916, -0.06665799021720886, -0.019347215071320534, 0.07957585901021957, -0.17936360836029053, 0.2173309475183487, 0.0606202594935894, 0.1357649713754654, -0.3335265815258026, -0.21327796578407288, -0.0471188984811306, 0.07441318780183792, -0.26890939474105835, 0.00977231189608574, -0.08629322052001953, 0.0340237021446228, 0.32864615321159363, -0.10860499739646912, 0.00834884773939848, -0.027012068778276443, -0.03525957092642784], [0.04835952818393707, 0.15569597482681274, 0.033882029354572296, 0.058501482009887695, -0.25993669033050537, 0.14778536558151245, -0.23810206353664398, 0.0032388356048613787, -0.04393694922327995, 0.13743872940540314, 0.05666479095816612, 0.007481394801288843, -0.13200867176055908, 0.017359508201479912, 0.10690302401781082, -0.0006480003939941525, 0.12241171300411224, 0.019725369289517403, 0.07652195543050766, -0.17653805017471313, -0.04792862758040428, -0.15844206511974335, 0.08857281506061554, -0.04644704982638359, -0.10504613816738129, 0.08048447966575623, 0.1252199113368988, -0.039340682327747345, 0.08569560945034027, 0.011762593872845173, 0.09514603018760681, 0.016342587769031525, -0.0018803095445036888, 0.010575290769338608, 0.032704245299100876, -0.07894465327262878, -0.07708857953548431, -0.09832470118999481, -0.04802379384636879, 0.003626215038821101, -0.09036608785390854, -0.08757992088794708, -0.047525640577077866, -0.013154463842511177, -0.02717338688671589, -0.0897352322936058, 0.09183984249830246, 0.03396318480372429, 0.07510128617286682, 0.005603319965302944, -0.07139675319194794, 0.10521402209997177, 0.03640393167734146, 0.02485608123242855, -0.021635130047798157, 0.031835220754146576, -0.009561887010931969, -0.035456057637929916, 0.042897794395685196, 0.07365599274635315, 0.061883021146059036, 0.09704742580652237, 0.06133478507399559, -0.0680575892329216, -0.024816036224365234, 0.19677354395389557, 0.09458023309707642, -0.004349398892372847, 0.0694521814584732, 0.003922323230654001, -0.12213855236768723, -0.08669015020132065, -0.04949687048792839, -0.13468104600906372, 0.06606366485357285, -0.04580751806497574, 0.015124594792723656, -0.04375695064663887, 0.024152560159564018, -0.01780516467988491, -0.03640715032815933, 0.0025150375440716743, -0.12897169589996338, 0.12018884718418121, 0.011019456200301647, 0.0015980969183146954, -0.13227809965610504, -0.06906455755233765, 0.09953020513057709, -0.022618679329752922, 0.03134920075535774, 0.1518910676240921, -0.03050301969051361, -0.0535430945456028, -0.17070861160755157, -0.07328970730304718, 0.050663210451602936, 0.07854380458593369, -0.1498841792345047, -0.07462020218372345, -0.10886229574680328, -0.04294099658727646, 0.1533452868461609, 0.11696954071521759, 0.018978748470544815, -0.04601188376545906, -0.10263250768184662, 0.2509536147117615, 0.09868478029966354, -0.19297203421592712, -0.021886125206947327, -0.10435574501752853, -0.031309258192777634, -0.005723319482058287, 0.01619875244796276, -0.18199682235717773, -0.16207268834114075, -0.010754924267530441, -0.007028506137430668, 0.2421978861093521, 0.05508805811405182, 0.09905097633600235, -0.09519213438034058, 0.017622139304876328, -0.09337608516216278, -0.055702924728393555, 0.15268822014331818, -0.0028424079064279795, 0.05183718726038933, -0.11765658855438232, -0.16169996559619904, -0.07079876214265823, 0.14914213120937347, -0.0777026116847992, -0.32213035225868225, -0.06391970813274384, -0.09363248944282532, 0.1316945105791092, -0.21553410589694977, -0.1288016140460968, 0.10362887382507324, -0.14125196635723114, -0.09602400660514832, 0.2822047472000122, 0.10883592069149017, -0.15100078284740448, -0.0014125469606369734], [0.09097114950418472, 0.020922236144542694, 0.11277244240045547, -0.03897841274738312, 0.020159155130386353, 0.02097170054912567, -0.25448355078697205, 0.036777060478925705, 0.06295370310544968, -0.024742482230067253, -0.027573447674512863, 0.11547059565782547, -0.009247437119483948, -0.174806147813797, 0.05869278684258461, 0.06894907355308533, 0.03885604068636894, 0.14310288429260254, -0.0394221656024456, -0.022172821685671806, 0.010884515941143036, 0.03431519865989685, -0.07001950591802597, -0.06640875339508057, -0.027076149359345436, 0.04962297901511192, -0.08039437979459763, 0.046312373131513596, -0.13385233283042908, 0.013457081280648708, -0.07196412235498428, 0.09528005123138428, 0.07030928879976273, 0.0018627513200044632, 0.005644983146339655, -0.04493870586156845, -0.04326000437140465, 0.05756775662302971, 0.041086919605731964, 0.003970188554376364, -0.010187661275267601, -0.014934899285435677, -0.1713954508304596, -0.02153923176229, -0.018411653116345406, -0.006183022633194923, -0.038626138120889664, 0.0005471434560604393, 0.11526156216859818, -0.034920819103717804, 0.12334094941616058, 0.06441273540258408, 0.06347634643316269, -0.05712050572037697, 0.06091414764523506, -0.01724584773182869, 0.02298564463853836, -0.12635429203510284, -0.1117764413356781, -0.10862689465284348, 0.1659119576215744, -0.14635586738586426, 0.03680768981575966, 0.03905199468135834, 0.061782434582710266, 0.0889052078127861, 0.01827062852680683, -0.08595836162567139, -0.1368425041437149, 0.010023738257586956, 0.10635190457105637, -0.04302893579006195, 0.12446913123130798, 0.006678428500890732, 0.08915819227695465, 0.0330481119453907, -0.13574834167957306, 0.04122282564640045, -0.04316030442714691, 0.08035573363304138, -0.07695525139570236, 0.004606621339917183, -0.026303546503186226, 0.0865071713924408, 0.04064092040061951, -0.08382752537727356, -0.0030800453387200832, 0.005534592550247908, 0.050359807908535004, 0.02270420640707016, -0.03611335530877113, -0.11570166051387787, 0.014716633595526218, 0.10752804577350616, 0.07671091705560684, -0.0752716064453125, 0.02810915745794773, 0.028206387534737587, 0.045444607734680176, -0.021108759567141533, 0.04151339456439018, 0.1671677678823471, 0.10448313504457474, 0.20637673139572144, -0.10715970396995544, -0.16621333360671997, 0.16061124205589294, 0.13252945244312286, -0.011684197001159191, -0.24706821143627167, 0.033929165452718735, -0.02550406940281391, -0.07863491028547287, 0.2183435708284378, 0.049735087901353836, -0.03350477293133736, 0.0004917739424854517, 0.0005672056577168405, 0.10369663685560226, 0.11062236875295639, 0.12275700271129608, -0.02325897105038166, -0.137447327375412, 0.09189670532941818, 0.069730244576931, 0.026646193116903305, -0.04797409102320671, 0.011744705028831959, 0.002899675164371729, 0.0919298306107521, -0.25644925236701965, 0.10009213536977768, -0.0042312354780733585, 0.020847607403993607, -0.16067920625209808, -0.13070523738861084, 0.1465592235326767, 0.0653194934129715, -0.26275634765625, 0.20273332297801971, 0.029684124514460564, 0.015499364584684372, 0.18315809965133667, 0.4299849271774292, 0.14420045912265778, -0.044982943683862686, 0.07061679661273956], [-0.11100304871797562, -0.05648012086749077, 0.10211222618818283, -0.042339302599430084, 0.12030436098575592, 0.0939200222492218, 0.1251368671655655, -0.0017200877191498876, -0.03028005361557007, 0.03416156768798828, 0.09110333770513535, -0.001223946688696742, 0.09821563214063644, 0.057559601962566376, 0.11943073570728302, -0.08101010322570801, -0.11252414435148239, 0.15165525674819946, -0.13577872514724731, 0.01063897181302309, 0.23235386610031128, 0.026452558115124702, 0.0023427288979291916, -0.09364981204271317, 0.04370448365807533, -0.119066521525383, 0.035626139491796494, -0.11219768971204758, -0.22641780972480774, 0.018827354535460472, 0.06593941152095795, 0.09458939731121063, -0.08761142194271088, -0.0832427442073822, -0.057541534304618835, 0.05697479471564293, 0.004801243077963591, -0.09525938332080841, -0.08934639394283295, 0.0040865689516067505, -0.08087068051099777, -0.08586155623197556, -0.055430956184864044, -0.011723899282515049, 0.0320449024438858, -0.022931937128305435, -0.13843640685081482, -0.006544437725096941, -0.07139281183481216, -0.27950212359428406, 0.012039276771247387, -0.06244700029492378, -0.004475930240005255, -0.042261358350515366, -0.10378327965736389, 0.08925031125545502, -0.017000777646899223, -0.20167812705039978, 0.058592647314071655, -0.05658600106835365, -0.14363135397434235, 0.00594589626416564, -0.12097510695457458, -0.1840948611497879, 0.12892207503318787, -0.052133869379758835, 0.06160086393356323, -0.01385920774191618, -0.01453456748276949, 0.012733208015561104, 0.005817736964672804, -0.11815810203552246, 0.028051255270838737, -0.10363510996103287, -0.02410680428147316, -0.0008767548715695739, 0.03561220318078995, -0.05831689387559891, 0.04674850031733513, 0.043058108538389206, -0.13602672517299652, -0.11490540206432343, -0.11562865972518921, 0.11913341283798218, 0.0934329703450203, -0.13439862430095673, -0.028623713180422783, 0.16415852308273315, 0.004593463148921728, 0.03393392637372017, -0.10542048513889313, 0.02918877638876438, -0.1750049889087677, 0.08740180730819702, 0.09978770464658737, 0.03663968667387962, 0.06298816949129105, 0.08401505649089813, 0.036127399653196335, -0.006006260402500629, 0.05062532424926758, -0.08140953630208969, -0.08410722762346268, 0.02855227142572403, 0.09130767732858658, 0.1533268839120865, -0.30665892362594604, 0.02583910897374153, -0.04484882950782776, 0.013071831315755844, 0.008287942036986351, 0.029688239097595215, 0.002034101402387023, 0.04196856543421745, 0.042689062654972076, -0.017839301377534866, -0.05227871611714363, -0.08380629867315292, -0.1656600683927536, -0.18681806325912476, 0.0528753325343132, 0.1317368745803833, 0.07465484738349915, -0.003422954585403204, 0.02701050043106079, 0.047853272408246994, -0.12057410180568695, 0.04914398863911629, 0.14576399326324463, -0.05832740291953087, 0.09074831008911133, 0.03271498531103134, 0.05357523635029793, 0.10935098677873611, 0.40948486328125, -0.019954809918999672, -0.1303045153617859, -0.1757788211107254, 0.2989530861377716, 0.06504479050636292, -0.05316637456417084, 0.037040624767541885, -0.24341660737991333, -0.09504202008247375, -0.173031285405159, 0.08818322420120239, -0.04213341698050499], [0.0521654337644577, -0.1440378725528717, 0.1418212205171585, -0.00394776463508606, -0.03397105261683464, 0.11889351904392242, 0.29677876830101013, -0.08118648082017899, 0.034031327813863754, -0.08605866879224777, -0.10082437843084335, 0.05075597018003464, 0.08628334850072861, 0.03039124421775341, 0.05744992196559906, -0.07827940583229065, 0.03399635851383209, -0.23019656538963318, 0.01423674076795578, 0.016343675553798676, -0.25669193267822266, -0.05764017254114151, 0.24423909187316895, 0.0002425349084660411, 0.0504378005862236, -0.06754621863365173, 0.24594873189926147, -0.03863853961229324, -0.1750745177268982, 0.051057107746601105, 0.021050509065389633, -0.05492645129561424, 0.09512986987829208, -0.10105452686548233, 0.04789120703935623, 0.15562649071216583, 0.10821011662483215, -0.12269636988639832, 0.12453244626522064, -0.16820263862609863, -0.12040803581476212, 0.25810495018959045, 0.1500101089477539, -0.13061271607875824, -0.02868182398378849, -0.09387275576591492, 0.14966918528079987, -0.015004447661340237, -0.02393452078104019, 0.059425149112939835, 0.08610506355762482, -0.007024052087217569, 0.07287642359733582, 0.019765140488743782, 0.15089227259159088, -0.06900256872177124, 0.001661411952227354, 0.023938974365592003, 0.13368859887123108, 0.16597728431224823, 0.004216010682284832, -0.01700020581483841, 0.007156237028539181, -0.11685765534639359, 0.0036327666603028774, -0.006676144897937775, -0.03505651280283928, -0.019267182797193527, -0.012213190086185932, -0.012008493766188622, -0.04284769296646118, 0.1452406793832779, 0.061785370111465454, -0.010766691528260708, -0.09891054034233093, -0.07014472782611847, -0.10683465749025345, 0.09969453513622284, -0.1805819272994995, -0.014803704805672169, -0.04060282185673714, -0.039332617074251175, 0.12532688677310944, 0.039926715195178986, 0.05017125606536865, -0.011227354407310486, 0.028095779940485954, 0.08885413408279419, -0.07618362456560135, -0.01012521330267191, -0.049461476504802704, -0.11362814903259277, 0.0934637114405632, 0.0817793607711792, 0.10433586686849594, 0.04088868200778961, -0.02247883379459381, 0.05930628627538681, -0.022622212767601013, -0.03997253626585007, 0.04111893102526665, -0.17992110550403595, -0.13977791368961334, 0.03246251121163368, 0.112199567258358, 0.17429186403751373, 0.03721390292048454, 0.12375075370073318, -0.039360161870718, 0.11665675044059753, -0.30170461535453796, -0.2211739718914032, -0.10940524935722351, -0.05100015923380852, 0.05270274356007576, 0.12112469226121902, -0.18606440722942352, 0.041978612542152405, -0.030017858371138573, -0.0171260517090559, -0.08432994037866592, 0.0898929014801979, 0.06619251519441605, 0.0601239837706089, -0.06813865154981613, -0.049523189663887024, 0.26178914308547974, 0.011786723509430885, -0.05098430812358856, 0.051932208240032196, -0.14241650700569153, -0.040275026112794876, 0.05715863034129143, 0.11527987569570541, -0.4180563986301422, 0.045931898057460785, -0.15818046033382416, 0.05332895368337631, -0.3443768620491028, -0.047839876264333725, 0.026304442435503006, -0.014041402377188206, 0.044235821813344955, -0.10401784628629684, -0.04269622638821602, 0.014340117573738098, -0.08543986082077026], [-0.020297948271036148, 0.003100236877799034, 0.03321993723511696, -0.05201941356062889, -0.05130353197455406, 0.03862553834915161, -0.27798691391944885, -0.08085916936397552, -0.06168914586305618, -0.04370298236608505, 0.09260602295398712, -0.031257402151823044, 0.0510602667927742, 0.16689296066761017, 0.10075324773788452, 0.016290580853819847, 0.14519625902175903, -0.15499047935009003, -0.1518675982952118, -0.045708153396844864, 0.02480778470635414, -0.0614069402217865, 0.07414798438549042, -0.005273906979709864, -0.05903349816799164, 0.07347587496042252, -0.08660662919282913, 0.07362637668848038, 0.08959123492240906, -0.05429002642631531, -0.01390574499964714, 0.0076166726648807526, 0.15866510570049286, 0.14621813595294952, -0.0038698308635503054, 0.03905182704329491, 0.023563921451568604, 0.06090831011533737, 0.004124789498746395, -0.029168210923671722, -0.10437552630901337, 0.005745054222643375, -0.02699657902121544, 0.15225021541118622, -0.07145632058382034, 0.02991211600601673, -0.02042115479707718, 0.040271271020174026, 0.12991343438625336, 0.14602752029895782, 0.08360985666513443, 0.07117026299238205, -0.07791153341531754, 0.05645882710814476, -0.09213169664144516, -0.032457657158374786, 0.018567413091659546, -0.039764828979969025, -0.012107446789741516, -0.06501023471355438, 0.023418979719281197, -0.09898345917463303, 0.006409966852515936, 0.16630005836486816, 0.09777513146400452, -0.021152745932340622, -0.008623398840427399, 0.034259095788002014, -0.07064121961593628, 0.023792847990989685, 0.034282196313142776, 0.044733647257089615, -0.03991914540529251, -0.17871588468551636, -0.001338626374490559, -0.037846483290195465, -0.06344170868396759, -0.043319281190633774, -0.10997068881988525, 0.07754490524530411, 0.08556654304265976, -0.1121748760342598, 0.1082533448934555, -0.18125689029693604, -0.11361883580684662, 0.07339584082365036, 0.055927738547325134, -0.08206657320261002, -0.07111306488513947, 0.06587479263544083, -0.17138785123825073, -0.04395526647567749, 0.13770481944084167, -0.11370935291051865, 0.0065424018539488316, 0.00344929751008749, 0.08374319225549698, 0.06514281779527664, -0.008666230365633965, 0.01184344943612814, -0.014773501083254814, 0.03716042637825012, 0.15466535091400146, -0.09384595602750778, -0.00985189899802208, 0.1216161698102951, 0.026038795709609985, 0.19517555832862854, 0.0424506738781929, 0.07600009441375732, 0.05965176969766617, -0.14398087561130524, -0.24148033559322357, 0.08982305973768234, -0.02967963181436062, 0.006985022220760584, 0.1218164786696434, 0.11809530109167099, 0.13520199060440063, -0.11282531917095184, -0.005690263118594885, 0.06490738689899445, 0.1391640156507492, 0.1250218003988266, 0.15827558934688568, 0.004445632454007864, 0.07165314257144928, 0.0035669622011482716, 0.048597704619169235, -0.0633421242237091, -0.15855461359024048, -0.19110901653766632, 0.04194410517811775, 0.026781268417835236, -0.5345104336738586, 0.002113418187946081, 0.08559144288301468, 0.21897301077842712, -0.4091014266014099, -0.040267735719680786, 0.050924528390169144, -0.04452988877892494, 0.05872510001063347, 0.12279551476240158, -0.00769496476277709, -0.025035353377461433, 0.05416807904839516], [-0.17623206973075867, -0.024212779477238655, -0.03851516544818878, 0.09595398604869843, 0.09129665046930313, 0.012757810764014721, 0.1262594759464264, -0.1891106814146042, -0.03462572768330574, 0.06801653653383255, -0.12402898818254471, 0.009462117217481136, 0.13298873603343964, -0.20196832716464996, -0.07216228544712067, -0.0788702517747879, 0.028257934376597404, -0.0626639798283577, -0.0434543713927269, -0.10069645196199417, 0.04684819281101227, 0.009546948596835136, -0.17864586412906647, 0.08097311109304428, -0.04116883873939514, -0.02251686528325081, 0.018976936116814613, -0.06143147870898247, 0.008975173346698284, 0.039503198117017746, -0.20478644967079163, -0.09322318434715271, -0.015496700070798397, -0.01797153614461422, 0.049093056470155716, 0.05094289034605026, -0.06160496175289154, 0.04546250402927399, 0.12344624847173691, -0.014337298460304737, -0.11175817251205444, 0.018966933712363243, -0.07971775531768799, -0.12492687255144119, 0.11057920008897781, 0.10553435236215591, 0.02875448204576969, -0.20262965559959412, 0.17677079141139984, 0.007605209015309811, 0.017927875742316246, -0.005923035088926554, -0.028842447325587273, -0.042180679738521576, -0.037689458578825, 0.02224971540272236, -0.13243982195854187, -0.06294388324022293, -0.017670700326561928, -0.02675589919090271, 0.012724209576845169, -0.024950947612524033, 0.06452412158250809, 0.0702182948589325, 0.02164449170231819, -0.029640929773449898, 0.02808266691863537, 0.05184820666909218, 0.10180214792490005, 0.01424316130578518, -0.004177759867161512, -0.06695064157247543, -0.16459950804710388, -0.06021496281027794, 0.004066307097673416, 0.029204662889242172, 0.11920058727264404, -0.09710996598005295, -0.03349463641643524, -0.0623810850083828, 0.07265500724315643, -0.0188340675085783, -0.017387187108397484, 0.20274195075035095, -0.0005019655800424516, 0.020396724343299866, 0.09683886915445328, -0.00224028411321342, 0.054659560322761536, -0.041299767792224884, -0.07385286688804626, 0.10999657213687897, 0.003994566388428211, -0.021326083689928055, 0.06320757418870926, 0.08553829789161682, 0.1220526397228241, -0.11302856355905533, 0.048609986901283264, 0.07996322214603424, -0.037017013877630234, -0.03022073023021221, -0.17009089887142181, -0.01160342711955309, 0.07244543731212616, 0.002492740284651518, 0.13574345409870148, 0.06672149896621704, -0.18864698708057404, -0.05191508308053017, 0.04834635183215141, 0.13704393804073334, -0.04903120547533035, -0.34094491600990295, -0.021417969837784767, -0.07394048571586609, -0.033917877823114395, 0.050662461668252945, 0.025193210691213608, -0.052762214094400406, -0.13189493119716644, 0.16912075877189636, -0.14172492921352386, -0.05673312768340111, -0.01675240881741047, 0.04419102147221565, -0.046810075640678406, 0.005039592739194632, -0.12230338156223297, -0.01061301864683628, -0.13282068073749542, -0.020239390432834625, -0.019010460004210472, -0.021573906764388084, -0.2571175694465637, -0.06158820539712906, 0.03217387571930885, 0.11617725342512131, -0.11720500141382217, -0.19362537562847137, -0.008207069709897041, 0.19846022129058838, 0.10103979706764221, -0.35475119948387146, -0.03475506976246834, -0.02190754935145378, -0.0729466900229454], [0.14298734068870544, 0.01778264343738556, 0.02561214379966259, 0.020550623536109924, 0.03635677695274353, -0.11689237505197525, 0.16148674488067627, 0.07762531191110611, 0.003772154450416565, -0.10917334258556366, 0.0027472367510199547, 0.08984880149364471, -0.05099552497267723, 0.04242850840091705, -0.029065478593111038, 0.1116960346698761, -0.13714158535003662, 0.07877244800329208, -0.07622025161981583, 0.03200971335172653, 0.24866226315498352, 0.0032961415126919746, 0.05039062723517418, -0.0060538724064826965, 0.037912383675575256, -0.05420713499188423, 0.10375665873289108, 0.020226070657372475, 0.0937863141298294, 0.1831778883934021, 0.00726849352940917, 0.06106036528944969, -0.025691021233797073, 0.08467031270265579, -0.04004952684044838, 0.13972072303295135, 0.03937367722392082, -0.16853086650371552, 0.14447040855884552, -0.17632851004600525, -0.09156616777181625, 0.028892243281006813, 0.016643663868308067, -0.0035731990355998278, 0.2208581566810608, -0.11492049694061279, -0.036030806601047516, -0.028334494680166245, -0.09640898555517197, -0.13889537751674652, 0.1686573624610901, -0.10044318437576294, 0.18509924411773682, -0.01796574518084526, -0.014405901543796062, -0.018299400806427002, 0.18781764805316925, -0.11417979747056961, 0.04764144495129585, 0.03804629668593407, -0.23752650618553162, -0.10337790101766586, 0.15197190642356873, 0.07800520211458206, 0.0522933192551136, -0.004954950418323278, -0.03621594235301018, 0.0006207287078723311, 0.013265887275338173, -0.06205335259437561, 0.1655128002166748, -0.1013554260134697, -0.14129257202148438, -0.08965698629617691, -0.0371737964451313, -0.09490653872489929, -0.010423185303807259, 0.09334389865398407, 0.10865923017263412, 0.03260834142565727, 0.014706269837915897, 0.024443892762064934, -0.051953211426734924, 0.08614537864923477, 0.010224651545286179, -0.001211914699524641, -0.13050098717212677, -0.2203996777534485, 0.030031118541955948, 0.09388425201177597, -0.06912679970264435, 0.18671347200870514, 0.13745568692684174, 0.02272907830774784, 0.035121042281389236, -0.1012878566980362, -0.07882041484117508, 0.0032902411185204983, -0.033185526728630066, -0.007637334521859884, -0.035806406289339066, -0.05025187507271767, -0.049060750752687454, -0.11971812695264816, -0.06567017734050751, -0.3255569636821747, 0.07682490348815918, -0.09195117652416229, -0.028487475588917732, -0.02490106411278248, 0.09282518923282623, -0.018442528322339058, 0.07061275839805603, -0.025287849828600883, 0.09463102370500565, 0.023030513897538185, 0.014985238201916218, -0.006409619934856892, -0.05741608887910843, 0.0671112909913063, 0.11604613065719604, 0.09837616980075836, 0.15060393512248993, -0.10708747059106827, 0.048288967460393906, -0.04639788344502449, 0.15303216874599457, 0.021574487909674644, 0.03143996745347977, 0.0759526863694191, 0.039601393043994904, -0.0112708555534482, 0.010379860177636147, 0.2353709489107132, 0.30876874923706055, 0.09588398784399033, -0.013804016634821892, -0.05585717037320137, 0.26753488183021545, 0.08239073306322098, -0.06818042695522308, 0.06707274913787842, -0.1320929080247879, 0.20622092485427856, 0.0052323429845273495, 0.06457293033599854, 0.04724074527621269], [-0.09125054627656937, 0.1035371869802475, -0.03964098170399666, 0.11562856286764145, 0.11357390135526657, -0.03955106809735298, 0.020616300404071808, 0.05090934783220291, -0.09532055258750916, -0.0976058840751648, 0.08742625266313553, 0.1868315041065216, -0.004385933745652437, -0.04649379476904869, 0.08081970363855362, 0.07702311128377914, 0.08024684339761734, -0.043764159083366394, -0.005846098996698856, -0.1009722352027893, -0.07549462467432022, 0.1767140030860901, 0.07511357963085175, -0.0703999474644661, 0.12678289413452148, -0.05744917318224907, -0.087439626455307, 0.04676805064082146, -0.09710140526294708, -0.04653498902916908, -0.07754827290773392, -0.004798156674951315, 0.005777602083981037, -0.06960821151733398, -0.016411161050200462, 0.1273367553949356, -0.11760403215885162, -0.005533840041607618, 0.1602984368801117, 0.17009244859218597, -0.12085431814193726, 0.02385236881673336, -0.06315865367650986, 0.06696047633886337, -0.08384986966848373, -0.030731016770005226, 0.08050369471311569, 0.06105160713195801, 0.03318068012595177, -0.18340997397899628, -0.17651516199111938, 0.032436568289995193, -0.19087287783622742, 0.048366840928792953, -0.027508247643709183, -0.013786442577838898, -0.07107164710760117, 0.14975015819072723, -0.010692283511161804, 0.04717709869146347, 0.03430836275219917, 0.15625937283039093, -0.05319768935441971, 0.031170155853033066, -0.07675142586231232, 0.01112960185855627, -0.09628325700759888, 0.07786321640014648, 0.027926286682486534, -0.18610142171382904, -0.09878756105899811, -0.054961882531642914, -0.04262949153780937, 0.11624936759471893, 0.14574024081230164, -0.017900438979268074, -0.05466897785663605, 0.14580385386943817, -0.16861344873905182, 0.12257379293441772, 0.05888468027114868, 0.024250555783510208, 0.09503962099552155, -0.030506053939461708, 0.03722057119011879, -0.02867184393107891, 0.029337072744965553, 0.010731395334005356, 0.07874865084886551, 0.04205658659338951, 0.026562880724668503, 0.07554958015680313, 0.09050704538822174, -0.08083588629961014, 0.05955220386385918, 0.10199763625860214, -0.02345237508416176, 0.014754806645214558, -0.1011384055018425, -0.09789803624153137, -0.04902425408363342, -0.14421071112155914, 0.1194031834602356, 0.09157032519578934, 0.04378906637430191, -0.008798901923000813, -0.008347311057150364, 0.04630866274237633, 0.0011070944601669908, 0.04521011561155319, -0.08614955097436905, 0.02077644132077694, -0.07510124146938324, 0.14893944561481476, -0.06482609361410141, 0.05546117573976517, -0.2658812403678894, -0.14541570842266083, -0.20047183334827423, 0.10256315022706985, 0.15388208627700806, -0.08845995366573334, -0.07810318470001221, -0.06863634288311005, -0.07190380245447159, -0.03801209479570389, -0.14913372695446014, 0.13960139453411102, -0.08710484206676483, -0.06481315195560455, 0.09987258911132812, -0.03894650936126709, -0.0390595979988575, -0.0188699122518301, 0.12086369097232819, 0.2010302096605301, -0.02425430901348591, -0.11890944093465805, 0.13447222113609314, 0.045600831508636475, -0.3365827798843384, 0.06704021990299225, 0.02338811196386814, 0.345364511013031, 0.27980682253837585, 0.13786937296390533, 0.11691878736019135], [0.0698498785495758, 0.0159604512155056, 0.06237324699759483, 0.03374006971716881, 0.03449353948235512, -0.0039118570275604725, -0.016896579414606094, -0.035818587988615036, -0.06978408992290497, 0.01706491969525814, -0.08154908567667007, -0.005879454780369997, -0.15408475697040558, -0.02277565374970436, -0.20426319539546967, -0.22325001657009125, 0.012313530780375004, -0.10306204855442047, -0.1274823099374771, -0.07933052629232407, 0.15744444727897644, 0.10702525824308395, -0.07184480875730515, -0.13982723653316498, 0.00030050103669054806, 0.09538581967353821, 0.14742182195186615, 0.10508482903242111, 0.14920072257518768, 0.05225898325443268, -0.1367923468351364, 0.1267123520374298, 0.016888199374079704, -0.11724397540092468, 0.14510871469974518, -0.004647798370569944, 0.1200273334980011, 0.029565032571554184, 0.07752543687820435, 0.2091708779335022, 0.08678200095891953, 0.021803084760904312, -0.06594232469797134, 0.09243866056203842, -0.032926272600889206, -0.011500953696668148, -0.0066237603314220905, -0.06598370522260666, 0.03579551354050636, -0.04653667286038399, 0.1409590244293213, -0.10901550203561783, 0.01498637069016695, 0.02637767232954502, 0.015753479674458504, -0.04047411307692528, -0.002828119555488229, 0.024718092754483223, 0.008968922309577465, 0.0023301115725189447, 0.11042430251836777, 0.029576199129223824, -0.06815802305936813, -0.16686417162418365, 0.16601207852363586, -0.07983993738889694, 0.12577176094055176, 0.07542117685079575, 0.014452693983912468, 0.013210625387728214, 0.054630886763334274, -0.008987042121589184, 0.07055356353521347, -0.06415462493896484, 0.043294284492731094, 0.09954797476530075, -0.13196629285812378, 0.16862301528453827, 0.11808063089847565, 0.06753892451524734, -0.05767164006829262, -0.05605919286608696, 0.08615496009588242, 0.06615318357944489, -0.16249844431877136, -0.06847626715898514, -0.1241719201207161, 0.08575907349586487, -0.1011878177523613, -0.06235356256365776, 0.061357609927654266, -0.056099891662597656, -0.033309582620859146, -0.16106784343719482, 0.19233617186546326, 0.04089901223778725, -0.02669377066195011, -0.07671556621789932, -0.10805513709783554, 0.1922973096370697, -0.03629410266876221, -0.20537631213665009, 0.09757620841264725, 0.04892055690288544, 0.11157557368278503, 0.006161884404718876, 0.11150892823934555, -0.12991578876972198, -0.20384784042835236, 0.09685848653316498, -0.0807398185133934, 0.027410585433244705, -0.12230566889047623, -0.027404122054576874, -0.03245214745402336, 0.14686308801174164, 0.24460303783416748, 0.017804250121116638, -0.0751064196228981, 0.13114570081233978, 0.010861589573323727, 0.2042790651321411, 0.080449678003788, -0.11089818924665451, -0.03061494790017605, -0.028429213911294937, -0.018034188076853752, -0.04653763398528099, 0.009066171944141388, 0.015408500097692013, -0.14933742582798004, 0.05785056948661804, 0.1264531910419464, 0.1444273293018341, -0.3346812427043915, -0.1720319390296936, 0.21130914986133575, 0.13194790482521057, -0.19059565663337708, -0.1551068276166916, 0.09266872704029083, -0.06780325621366501, 0.15758226811885834, -0.29606932401657104, -0.2152821123600006, -0.041672464460134506, -0.04483485221862793], [-0.005063472781330347, 0.040975313633680344, -0.04486040025949478, 0.07554958015680313, 0.07271602749824524, -0.09657584130764008, 0.08714265376329422, -0.010215849615633488, 0.012989060953259468, 0.07110230624675751, 0.07121985405683517, 0.00806453637778759, -0.028241019695997238, -0.1311390995979309, 0.02730855531990528, 0.0409410260617733, -0.09634670615196228, 0.010202542878687382, -0.027786482125520706, -0.05535463988780975, -0.040843941271305084, 0.015057463198900223, 0.00908482726663351, 0.09739816188812256, -0.005706065334379673, 0.12162803113460541, -0.052256956696510315, -0.12264921516180038, -0.11214666813611984, -0.04645289108157158, 0.14232245087623596, -0.02880421280860901, 0.1533411294221878, -0.029508188366889954, -0.27102428674697876, -0.07078327983617783, -0.097243532538414, 0.005981819238513708, 0.01637430489063263, 0.03889353573322296, -0.17296281456947327, -0.120627261698246, -0.09303482621908188, 0.036289751529693604, -0.0659230500459671, 0.0209701806306839, -0.054631076753139496, 0.09585408121347427, 0.024268679320812225, -0.03209042176604271, 0.013771657831966877, -0.0365404337644577, 0.08420132100582123, -0.17307564616203308, -0.11964667588472366, 0.042487189173698425, 0.1639440953731537, -0.08141492307186127, 0.09931880980730057, 0.04138585552573204, -0.004299200139939785, 0.0053247977048158646, 0.09151206910610199, 0.05945171043276787, 0.04981398209929466, -0.02039661630988121, -0.06341440975666046, -0.09663887321949005, -0.014241652563214302, -0.031207609921693802, -0.10618934780359268, 0.012916081584990025, 0.01569555513560772, -0.10501126945018768, -0.03923118859529495, -0.005588578060269356, -0.0315588153898716, -0.03674306347966194, 0.01905432529747486, 0.0031807306222617626, -0.14908401668071747, 0.009604325518012047, -0.058499373495578766, 0.01417729165405035, -0.06282243877649307, -0.023230798542499542, -0.08021477609872818, -0.2094803899526596, -0.07131297141313553, -0.0002400232187937945, -0.020382272079586983, -0.01239069178700447, 0.029336100444197655, -0.06485635042190552, -0.05668202042579651, -0.15705300867557526, -0.031465888023376465, -0.1571289598941803, -0.10197373479604721, 0.05022948235273361, -0.05343900993466377, -0.15388600528240204, -0.10407029092311859, -0.15092703700065613, -0.0036462817806750536, 0.24561956524848938, 0.11600146442651749, 0.12592025101184845, -0.05525922775268555, 0.03738933056592941, -0.2146112024784088, -0.07810483127832413, 0.12052224576473236, -0.03781235218048096, 0.0882096067070961, 0.13873843848705292, 0.06110508739948273, -0.05790885165333748, 0.16510073840618134, -0.12093548476696014, -0.115033820271492, 0.03321548178792, 0.0959591269493103, 0.21377089619636536, -0.046821482479572296, 0.047904398292303085, -0.023316679522395134, -0.027022384107112885, -0.03956855833530426, -0.26828017830848694, -0.24963054060935974, -0.011753343977034092, -0.173685684800148, 0.06552926450967789, -0.5036407113075256, 0.055109404027462006, 0.017065947875380516, 0.05299348384141922, -0.21895161271095276, 0.10280696302652359, 0.05024455115199089, 0.06826312094926834, 0.26643049716949463, 0.07700484991073608, 0.07830370217561722, 0.04722648486495018, 0.0008699411409907043], [0.074424609541893, -0.05923612043261528, -0.08308664709329605, -0.042225636541843414, -0.05216427147388458, 0.11055194586515427, 0.11572123318910599, -0.18925786018371582, 0.1977386623620987, -0.04088765010237694, 0.04475582018494606, -0.030479971319437027, -0.013890211470425129, -0.06919089704751968, 0.09430158138275146, 0.016952065750956535, -0.01490362361073494, -0.0002184750628657639, 0.019769221544265747, 0.13972342014312744, 0.02548341639339924, -0.12286549806594849, -0.017207005992531776, -0.01129540428519249, 0.04957420006394386, 0.12492876499891281, -0.0425267368555069, 0.05005013942718506, 0.14323240518569946, 0.0566093884408474, 0.047954823821783066, 0.020533263683319092, 0.09943225979804993, -0.07928485423326492, 0.008556907065212727, -0.02564018778502941, -0.2112157940864563, 0.08635212481021881, 0.16515174508094788, -0.046337250620126724, -0.07402531802654266, -0.01333048939704895, 0.05013944208621979, 0.11382856220006943, -0.11379122734069824, -0.05306399241089821, -0.005547134205698967, -0.024486152455210686, -0.03692010045051575, 0.009140755981206894, -0.1994277834892273, -0.004742735531181097, -0.06144183874130249, 0.0993286669254303, 0.06631926447153091, -0.12646178901195526, 0.09692921489477158, -0.1480812132358551, -0.01810412108898163, -0.12407545000314713, -0.08511284738779068, 0.20078174769878387, -0.010690545663237572, -0.04772726446390152, 0.08020354807376862, 0.18062685430049896, 0.016722168773412704, 0.0632539764046669, 0.001921563409268856, 0.03451135754585266, 0.035640645772218704, 0.12940359115600586, -0.004622636362910271, -0.11660511046648026, 0.00131104770116508, -0.1899235099554062, -0.1866111010313034, -0.04272962734103203, 0.006786321755498648, -0.18558281660079956, -0.03087216429412365, 0.10783489793539047, -0.02985379472374916, 0.05416668951511383, -0.11647649854421616, -0.14321960508823395, 0.0402175635099411, 0.016315795481204987, 0.039038896560668945, -0.08896316587924957, 0.032385047525167465, 0.05885306000709534, 0.13223353028297424, -0.17378225922584534, -0.06825913488864899, 0.042319975793361664, -0.11247214674949646, 0.049203597009181976, 0.09630528837442398, -0.08992109447717667, -0.017023790627717972, 0.2228924185037613, 0.08090534806251526, -0.092306949198246, -0.09275071322917938, -0.032013241201639175, 0.07002153247594833, -0.09728997945785522, -0.2244996726512909, 0.007785594556480646, -0.0005528307519853115, 0.15381304919719696, 0.10475081950426102, 0.04043911397457123, 0.023370828479528427, -0.11511016637086868, 0.10695553570985794, -0.07106810808181763, -0.09729684889316559, 0.0036689022090286016, 0.094180628657341, 0.0640520453453064, -0.009852862916886806, -0.04751942679286003, 0.049058396369218826, -0.1080983430147171, 0.1003316193819046, 0.08283601701259613, 0.033854931592941284, -0.036333780735731125, 0.057486265897750854, -0.0004566759162116796, 0.05687693879008293, 0.15740300714969635, 0.05419406294822693, 0.02585316076874733, -0.08808135241270065, 0.22856590151786804, 0.07566511631011963, -0.37359389662742615, -0.014551975764334202, 0.0840291753411293, -0.0353284627199173, 0.24711859226226807, 0.2050684541463852, -0.041386928409338, -0.055608268827199936], [0.06330516934394836, -0.014540824107825756, -0.07898223400115967, 0.0893554538488388, -0.07167282700538635, 0.05289650335907936, -0.16467469930648804, -0.004369633737951517, -0.07023020833730698, -0.040344901382923126, 0.0375714972615242, 0.06476326286792755, -0.019252071157097816, 0.0062615214847028255, 0.21071140468120575, 0.0436997264623642, -0.07320546358823776, 0.15785706043243408, 0.06981943547725677, -0.11800668388605118, -0.10688585042953491, 0.004037885926663876, 0.08344285190105438, 0.07502231746912003, 0.16274100542068481, -0.09184092283248901, -0.028406677767634392, 0.052983608096838, 0.01082820538431406, 0.005298295058310032, 0.03763611987233162, 0.05176114663481712, 0.034697968512773514, -0.15700122714042664, 0.16748960316181183, 0.17634978890419006, 0.13039550185203552, -0.017595471814274788, -0.042540937662124634, 0.02309626154601574, -0.1817827969789505, -0.09243513643741608, 0.08970827609300613, 0.015241275541484356, -0.07102593779563904, -0.13703711330890656, 0.0034096231684088707, 0.008463962934911251, 0.1641094833612442, 0.07137453556060791, -0.07455908507108688, 0.1530284285545349, 0.07367513328790665, 0.029551997780799866, -0.06552362442016602, -0.019928669556975365, 0.03592662513256073, -0.0987471416592598, 0.03665434196591377, -0.01512427069246769, 0.056267350912094116, -0.0352313332259655, 0.0728209838271141, -0.07041659206151962, 0.01937371864914894, -0.11091351509094238, -0.03762377053499222, -0.12547942996025085, 0.05078060179948807, 0.07161970436573029, -0.15058095753192902, 0.06976817548274994, -0.01825162023305893, 0.12911857664585114, 0.0502290315926075, -0.04103035852313042, 0.008048216812312603, -0.10667520761489868, 0.14828749001026154, 0.11029620468616486, 0.06934510916471481, 0.04555777087807655, 0.11935093253850937, -0.036276571452617645, 0.021458212286233902, -0.07947427779436111, -0.00782274641096592, 0.1259680688381195, -0.09098541736602783, 0.11083395034074783, -0.057090140879154205, -0.10513099282979965, -0.008942965418100357, -0.10098101198673248, 0.13140419125556946, 0.038544829934835434, 0.25235164165496826, 0.06141204014420509, -0.06734296679496765, -0.020650792866945267, 0.19609680771827698, 0.11607155948877335, -0.033316053450107574, -0.08845897763967514, -0.17620956897735596, -0.24190653860569, 0.04664115235209465, 0.062405627220869064, 0.15727682411670685, -0.14599984884262085, -0.025748755782842636, 0.08999504148960114, -0.042730554938316345, 0.3162527084350586, 0.3891602158546448, 0.016701336950063705, -0.28416597843170166, -0.1461268961429596, 0.11796180158853531, 0.14679498970508575, 0.040412504225969315, -0.0023136031813919544, -0.03891392797231674, 0.1262713521718979, 0.00270401150919497, 0.05467734485864639, -0.10392630845308304, 0.03674335777759552, 0.11069191247224808, -0.03852812945842743, 0.138519287109375, -0.07906531542539597, -0.004265886265784502, -0.09998437017202377, 0.004528664983808994, 0.05676040053367615, 0.06347350776195526, -0.0813908576965332, 0.12481184303760529, -0.026927536353468895, -0.1601700484752655, 0.05353812128305435, -0.06688565015792847, 0.15467575192451477, 0.11520988494157791, -0.10094575583934784, 0.031768832355737686], [0.01935642585158348, -0.07507137954235077, -0.026003839448094368, 0.20441605150699615, 0.049744389951229095, -0.10940451920032501, 0.008289231918752193, -0.11622238159179688, 0.020172176882624626, 0.18226608633995056, -0.041421715170145035, 0.14227043092250824, -0.12381099909543991, 0.054427891969680786, 0.08140046149492264, 0.1311647593975067, -0.2247556447982788, -0.023301923647522926, -0.04360504820942879, -0.10411115735769272, 0.06676392257213593, 0.08552923798561096, -0.020540690049529076, 0.23191076517105103, 0.14498186111450195, -0.17459380626678467, -0.090617336332798, -0.10087767243385315, 0.09271766990423203, 0.00790849793702364, 0.1460966020822525, -0.06211298704147339, 0.06292185932397842, -0.02011064998805523, 0.09664375334978104, -0.11912034451961517, -0.03373068571090698, 0.1444893330335617, 0.03598421439528465, 0.05865291506052017, 0.21600042283535004, -0.049960702657699585, -0.05213795602321625, 0.24952279031276703, 0.015267865732312202, 0.0482356958091259, 0.06706524640321732, -0.061634041368961334, -0.04886215552687645, 0.11212830245494843, 0.009698502719402313, 0.023454368114471436, -0.12493059784173965, 0.04395072162151337, -0.10236896574497223, 0.13745996356010437, 0.03792101889848709, -0.052406374365091324, 0.15063999593257904, 0.04910949617624283, -0.07490389794111252, -0.06283561885356903, 0.1340576708316803, -0.0315970778465271, -0.09245678037405014, -0.004853444639593363, -0.06360308080911636, 0.06489533931016922, -0.10028477758169174, 0.10539364069700241, -0.03565466031432152, -0.19514776766300201, 0.016180437058210373, -0.09273675084114075, 0.16557325422763824, 0.23248717188835144, 0.09849059581756592, 0.037588994950056076, -0.11480969190597534, -0.018901962786912918, -0.11838868260383606, 0.043941251933574677, 0.019764570519328117, 0.00953845027834177, 0.03775502368807793, 0.04761349409818649, 0.06952651590108871, -0.10010537505149841, -0.06192750856280327, -0.014591952785849571, -0.07222945243120193, 0.07187905162572861, -0.03477422520518303, -0.06949760019779205, -0.0017392507288604975, -0.05083880573511124, 0.052590567618608475, -0.048579029738903046, 0.03077530488371849, -0.10067611187696457, -0.026110369712114334, -0.02880048006772995, -0.04548567906022072, -0.08513551205396652, -0.04169962555170059, 0.0618509016931057, -0.027518678456544876, -0.1272829920053482, -0.14357221126556396, -0.05956259369850159, 0.017177056521177292, 0.10899295657873154, -0.04078945890069008, 0.0019487653626129031, -0.02262071520090103, -0.17187000811100006, -0.027428394183516502, -0.052571576088666916, -0.060093678534030914, -0.04215816780924797, 0.08739146590232849, 0.052846137434244156, 0.014815283007919788, -0.15066485106945038, -0.13654746115207672, 0.07193109393119812, 0.019725855439901352, -0.013819796964526176, 0.02249666303396225, -0.07907050102949142, 0.0377565436065197, -0.09026709198951721, -0.0759827122092247, -0.012666424736380577, 0.18916544318199158, -0.07403359562158585, -0.2543194591999054, -0.06801486760377884, 0.21049554646015167, 0.03639049828052521, -0.04798271507024765, -0.0038268286734819412, 0.1430104821920395, -0.14456775784492493, -0.03897304832935333, -0.14094433188438416, 0.15182220935821533], [0.007706386968493462, -0.015209618024528027, -0.03532496839761734, 0.12083583325147629, 0.09705096483230591, 0.06791438162326813, 0.4898298680782318, 0.1134333610534668, -0.14970417320728302, 0.10680282115936279, -0.06316822022199631, -0.08264951407909393, -0.08029373735189438, -0.051761627197265625, 0.01789241097867489, 0.05204404518008232, 0.011366128921508789, -0.01775064505636692, -0.032586295157670975, -0.03229019045829773, -0.06530563533306122, 0.08641956001520157, -0.0580458827316761, -0.051140960305929184, -0.049391016364097595, -0.05468934401869774, -0.14544011652469635, -0.05505160987377167, -0.02780226618051529, 0.1185501292347908, 0.050680626183748245, -0.06214924529194832, -0.01969229057431221, 0.06436027586460114, 0.05439647287130356, -0.0409543551504612, -0.06763137876987457, -0.13037557899951935, 0.039033059030771255, 0.004637989215552807, 0.027355382218956947, -0.07251667231321335, 0.06168825924396515, -0.04626324772834778, -0.02051454409956932, 0.12281230837106705, -0.06608597189188004, 0.03373260796070099, -0.13802890479564667, 0.14147815108299255, 0.08319145441055298, -0.1684211790561676, -0.046824607998132706, 0.026829885318875313, 0.04138004407286644, 0.07545934617519379, 0.07851958274841309, -0.03808863088488579, 0.010361974127590656, -0.016596471890807152, -0.026021884754300117, -0.035111717879772186, 0.06964538246393204, -0.06815411895513535, -0.04732474312186241, -0.06089948117733002, -0.08189068734645844, -0.0278492271900177, -0.025930015370249748, 0.004194534383714199, 0.17482119798660278, 0.008241823874413967, 0.03845702484250069, 0.03687930107116699, 0.09932305663824081, -0.08281413465738297, 0.14603066444396973, 0.007499282248318195, -0.041656993329524994, 0.007362524513155222, 0.060257844626903534, -0.036931101232767105, 0.19163474440574646, 0.051500916481018066, -0.13808020949363708, -0.15579953789710999, 0.02174614742398262, -0.07130450010299683, -0.08998461067676544, -0.017471084371209145, 0.09185556322336197, 0.04746610298752785, 0.07386161386966705, 0.1929425299167633, -0.05266762152314186, -0.17848892509937286, 0.1096935048699379, 0.0717691034078598, -0.014582891017198563, -0.17253424227237701, -0.1265479177236557, 0.001233766321092844, -0.060706015676259995, -0.10711946338415146, -0.09677887707948685, 0.016772450879216194, -0.019216591492295265, -0.1611485630273819, -0.06417668610811234, 0.05842487886548042, 0.09372611343860626, 0.045539725571870804, -0.24018093943595886, -0.043500468134880066, 0.11011525988578796, 0.14536498486995697, -0.059355344623327255, -0.08425246179103851, -0.024651221930980682, -0.02230447344481945, -0.049894243478775024, -0.07852165400981903, -0.03891799971461296, -0.07718735188245773, -0.01297691185027361, -0.07629135251045227, -0.0060273511335253716, 0.04153450205922127, 0.04779632389545441, 0.07491659373044968, 0.12430224567651749, 0.008677905425429344, 0.15071305632591248, -0.13061751425266266, 0.37380173802375793, -0.09772659093141556, -0.025818957015872, 0.04820270091295242, 0.3026057183742523, -0.09988341480493546, 0.08336809277534485, 0.00348457763902843, -0.12233801186084747, 0.1300891488790512, 0.06979729235172272, 0.0711490660905838, 0.024701569229364395], [0.02774455025792122, -0.16836749017238617, 0.04549480229616165, 0.1655549556016922, -0.07785303145647049, 0.08507852256298065, 0.1683901697397232, 0.01813555508852005, -0.1272743046283722, -0.016299478709697723, 0.1555463820695877, -0.003445583861321211, -0.008829144760966301, -0.049982957541942596, -0.18963812291622162, -0.013779038563370705, -0.0034888307563960552, 0.09002199023962021, -0.07647565007209778, 0.052643004804849625, 0.06499233841896057, 0.07825374603271484, 0.10552193224430084, 0.06262444704771042, -0.1563076674938202, -0.16950419545173645, -0.08246719092130661, 0.06626112759113312, 0.03365969657897949, 0.06842836737632751, -0.06702833622694016, 0.046307507902383804, 0.11331690102815628, 0.05086330696940422, -0.018815139308571815, -0.09728693217039108, -0.1915067732334137, 0.16289855539798737, 0.07256954163312912, 0.06378813087940216, 0.020613549277186394, 0.058957651257514954, 0.014014925807714462, 0.0234887283295393, -0.04406464099884033, 0.055480219423770905, 0.022952932864427567, 0.18514415621757507, 0.11274278908967972, -0.10000807791948318, -0.11775634437799454, -0.008255811408162117, -0.0878547951579094, -0.03396914526820183, -0.05521455034613609, -0.08331315219402313, -0.0902710035443306, -0.04599704593420029, -0.08060506731271744, -0.09326106309890747, -0.09772711247205734, -0.0119007658213377, 0.09280172735452652, 0.16534708440303802, -0.05968678742647171, 0.06224044784903526, -0.048804622143507004, 0.15764547884464264, -0.035123664885759354, 0.06670777499675751, 0.07795311510562897, -0.048133768141269684, 0.047068458050489426, -0.019133534282445908, -0.17011041939258575, 0.036497876048088074, -0.1125078946352005, 0.1128869280219078, -0.2044965922832489, -0.02109779231250286, -0.0008508505998179317, 0.031375281512737274, 0.07139043509960175, -0.06820481270551682, 0.04752546548843384, -0.006294394843280315, 0.044490404427051544, 0.1259816586971283, 0.04920068383216858, 0.005292374640703201, 0.03930161893367767, 0.06102611497044563, -0.034873753786087036, -0.08756304532289505, 0.08389793336391449, -0.2801140546798706, 0.11354347318410873, 0.041034992784261703, -0.11345325410366058, 0.05663461610674858, -0.03457801043987274, 0.06808818131685257, -0.14063696563243866, 0.02284478396177292, 0.05192599073052406, -0.10449136048555374, -0.07939830422401428, 0.014462711289525032, 0.13393352925777435, 0.12126027792692184, -0.05036522448062897, 0.030364612117409706, 0.09982044994831085, -0.07226870208978653, 0.23279818892478943, 0.032852720469236374, -0.1866884082555771, -0.10861046612262726, -0.015643524006009102, 0.007465224247425795, -0.09403534233570099, 0.07646419107913971, -0.03908677399158478, 0.0468740314245224, -0.08267904072999954, -0.04216769337654114, 0.030753619968891144, -0.04548153281211853, -0.012450172565877438, -0.09186596423387527, -0.1529153436422348, -0.058278366923332214, 0.019933141767978668, 0.014385353773832321, 0.3591795563697815, 0.038366708904504776, 0.06417814642190933, -0.14923807978630066, 0.2825457751750946, 0.19686900079250336, -0.07754742354154587, -0.1304980218410492, -0.15134480595588684, -0.3926985561847687, -0.06930116564035416, -0.04620462283492088, 0.082676962018013], [-0.00657996628433466, -0.1329408586025238, 0.08608030527830124, 0.034056100994348526, 0.07774548977613449, -0.07923617213964462, 0.17932941019535065, -0.020895790308713913, 0.04115688428282738, -0.07552828639745712, 0.18572130799293518, -0.08670353144407272, 0.09440428763628006, -0.16819508373737335, -0.07806835323572159, 0.14749294519424438, 0.14473837614059448, -0.03150278329849243, -0.0370289608836174, -0.051093749701976776, 0.09293664991855621, 0.057430025190114975, -0.022211536765098572, 0.03533515706658363, 0.08353948593139648, -0.10850587487220764, 0.06107249855995178, -0.08136392384767532, 0.016619253903627396, -0.09178999066352844, -0.04703323915600777, -0.031203173100948334, 0.03955845162272453, -0.007610154803842306, -0.06828175485134125, 0.05284419655799866, 0.12034059315919876, -0.0747542679309845, -0.048150207847356796, -0.03900223225355148, 0.03490975499153137, 0.11085144430398941, 0.11107630282640457, -0.05751198157668114, -0.1518118530511856, 0.008905035443603992, -0.05318516120314598, 0.08792810887098312, -0.06138775497674942, 0.10621084272861481, -0.00045586589840240777, 0.082606241106987, -0.008776719681918621, 0.01879425160586834, 0.011605363339185715, -0.017663687467575073, -0.032234542071819305, 0.19056256115436554, -0.07485128194093704, -0.057826928794384, -0.07349421083927155, -0.0002852035977412015, 0.1471848040819168, 0.02907181903719902, -0.01466176938265562, 0.05899868905544281, -0.05239278823137283, 0.014796310104429722, -0.011221975088119507, 0.035866741091012955, 0.24719078838825226, 0.0075279767625033855, -0.13115568459033966, -0.03482222929596901, 0.1351190209388733, 0.1432611644268036, 0.1448165625333786, -0.12212419509887695, -0.005222979933023453, -0.02570378966629505, -0.1813715547323227, -0.0814160406589508, 0.11053133010864258, 0.04582378640770912, 0.09031102061271667, -0.021082879975438118, 0.03953912481665611, -0.02557302825152874, 0.012842011637985706, 0.0026139544788748026, -0.07093509286642075, 0.03705660253763199, -0.059790972620248795, -0.03032275103032589, -0.007872767746448517, 0.11160509288311005, -0.06486637145280838, -0.0592072531580925, -0.12896156311035156, 0.014244076795876026, 0.15348051488399506, -0.05287080630660057, -0.09025707095861435, -0.12113595008850098, 0.08115989714860916, 0.06763078272342682, 0.02740981988608837, 0.032686613500118256, -0.1513812094926834, 0.08253592252731323, -0.06913325935602188, -0.11120419949293137, -0.060443636029958725, -0.04914062097668648, -0.10088511556386948, 0.03415635973215103, 0.03306582570075989, 0.15002641081809998, 0.18025948107242584, -0.12555578351020813, -0.009915278293192387, 0.045242369174957275, 0.12601999938488007, -0.010056165046989918, -0.07903672009706497, -0.011861332692205906, -0.004820566624403, -0.11608923971652985, -0.07843407988548279, 0.11526548117399216, -0.0411234125494957, 0.10494886338710785, 0.17986908555030823, 0.002787616802379489, 0.011579555459320545, 0.16093242168426514, 0.20174841582775116, 0.016190361231565475, 0.012393336743116379, -0.11257068812847137, -0.09057196974754333, -0.057228099554777145, -0.07968379557132721, -0.2773416340351105, -0.16722014546394348, -0.06505954265594482, 0.021207813173532486], [0.099840447306633, 0.21966968476772308, -0.045202385634183884, 0.049530986696481705, -0.09512607008218765, -0.0693625807762146, -0.04059798642992973, -0.09164212644100189, 0.01860937289893627, -0.037704598158597946, 0.012751881033182144, 0.026664379984140396, -0.0705418586730957, 0.11006106436252594, 0.10092441737651825, -0.18953663110733032, 0.047349996864795685, 0.055557120591402054, -0.03896956890821457, 0.1833362877368927, 0.021963780745863914, -0.07910522073507309, -0.05720369145274162, -0.0639789029955864, 0.02567434310913086, 0.06713491678237915, 0.19582043588161469, -0.13759832084178925, -0.01373435091227293, 0.08274514973163605, -0.12471340596675873, 0.18605674803256989, 0.006981686223298311, 0.020212214440107346, -0.06372477114200592, 0.05513988807797432, -0.10125478357076645, -0.03987712040543556, 0.032414816319942474, 0.1115078404545784, 0.07859613746404648, 0.09780193865299225, 0.06872046738862991, 0.05047638714313507, -0.0723695158958435, -0.060789626091718674, -0.018331026658415794, -0.0610840804874897, 0.09728968143463135, 0.05504148080945015, 0.09804052114486694, -0.1433379203081131, -0.06360775232315063, 0.21247850358486176, -0.1624777913093567, 0.08487541973590851, -0.05919133871793747, -0.05252271890640259, -0.12238746881484985, -0.07782914489507675, -0.03865955397486687, 0.013730764389038086, 0.025381317362189293, 0.10677953064441681, -0.03473614528775215, 0.022362524643540382, -0.04585160315036774, 0.07043997198343277, 0.04746447131037712, 0.023142296820878983, 0.11212475597858429, 0.016050174832344055, -0.028028713539242744, -0.05099684000015259, -0.07527443766593933, -0.03450728952884674, -0.03999623656272888, -0.0896148830652237, -0.019136440008878708, 0.03582384064793587, 0.022904951125383377, 0.04116355627775192, -0.04503212869167328, 0.015373867936432362, 0.03992651775479317, 0.14132621884346008, -0.03249116614460945, -0.05189519375562668, -0.2065829336643219, -0.06952450424432755, -0.011306915432214737, 0.09280725568532944, 0.030835062265396118, 0.030060291290283203, 0.12480586022138596, -0.0781656876206398, -0.10333685576915741, -0.16742685437202454, 0.062312912195920944, 0.06424825638532639, -0.054576121270656586, -0.035781361162662506, 0.029029084369540215, -0.07368847727775574, -0.026238590478897095, 0.0713571161031723, 0.0878903940320015, -0.1105562150478363, 0.04167669266462326, 0.04120419919490814, -0.0034798511769622564, -0.05558231845498085, 0.024129098281264305, 0.2842930257320404, -0.06775540113449097, -0.11135944724082947, 0.08226054906845093, 0.21521970629692078, 0.13717752695083618, -0.061874255537986755, 0.11626770347356796, 0.1477815806865692, -0.11298134922981262, 0.1938895732164383, -0.10803519934415817, 0.13557890057563782, 0.09520477801561356, 0.010495041497051716, 0.04502356797456741, 0.04575863480567932, -0.1283799707889557, 0.13229969143867493, 0.04882851615548134, 0.19466444849967957, -0.7472150921821594, 0.036127373576164246, 0.17621976137161255, 0.09549523890018463, -0.5008370876312256, -0.02849518693983555, -0.0346897728741169, 0.08236035704612732, 0.11309424787759781, -0.05821332335472107, 0.07971470803022385, -0.040090255439281464, 0.13745824992656708], [-0.11960174888372421, -0.01519171241670847, -0.04455149918794632, -0.03893003985285759, -0.10980299115180969, -0.013125352561473846, 0.037989046424627304, -0.06623993813991547, 0.21139532327651978, -0.0638098493218422, 0.11254124343395233, -0.03762868046760559, 0.261488139629364, -0.0297244880348444, -0.08171326667070389, 0.11698146164417267, 0.004192054737359285, -0.02584788203239441, 0.027133015915751457, -0.10021234303712845, -0.08907666802406311, 0.09438193589448929, 0.004118450451642275, -0.010889343917369843, -0.13161207735538483, 0.008986806496977806, 0.14134451746940613, 0.05460082367062569, -0.23072706162929535, 0.1659783571958542, -0.042496126145124435, -0.04347912594676018, 0.04932994022965431, -0.0580233596265316, 0.1631726175546646, -0.16648803651332855, -0.026602935045957565, 0.08226554095745087, 0.04246245324611664, 0.21541523933410645, 0.08065302670001984, 0.14980106055736542, 0.03882564976811409, -0.03423534706234932, -0.10540572553873062, 0.10995206981897354, 0.033893901854753494, -0.04728175699710846, 0.14588509500026703, -0.03656737133860588, 0.03989018499851227, 0.01849517971277237, 0.08058764040470123, -0.1120217815041542, 0.05126141384243965, 0.06976711750030518, 0.06391081213951111, -0.08650507032871246, -0.10365884751081467, -0.01624220982193947, -0.09758184105157852, -0.07138156145811081, 0.06998477876186371, -0.10092884302139282, -0.07548031210899353, 0.0013450257247313857, 0.07109787315130234, 0.07635843753814697, -0.13707730174064636, 0.0705438107252121, -0.013280518352985382, 5.819420039188117e-07, 0.04189733415842056, -0.1325281411409378, -0.07848534733057022, -0.16585341095924377, 0.04041551053524017, 0.06797050684690475, -0.039379898458719254, 0.12968483567237854, 0.11116615682840347, -0.1609867364168167, -0.011975333094596863, -0.023608656600117683, 0.15608586370944977, -0.14361120760440826, -0.010131835006177425, -0.044433921575546265, -0.04493297263979912, -0.021624913439154625, 0.0535271130502224, -0.023458173498511314, 0.04642109572887421, -0.08126027882099152, -0.06832584738731384, -0.0035670895595103502, -0.0335279256105423, 0.07263030111789703, -0.09871862828731537, 0.07893119007349014, -0.007153158076107502, -0.03915271535515785, -0.10481501370668411, 0.20842690765857697, -0.040631648153066635, -0.13872283697128296, -0.06832002103328705, -0.1554885357618332, -0.2754996716976166, -0.05461832135915756, 0.30821436643600464, 0.04907802864909172, 0.1547880619764328, -0.10326649993658066, -0.15888077020645142, -0.19817519187927246, 0.024461090564727783, 0.013758711516857147, 0.038391225039958954, -0.09383414685726166, 0.06878339499235153, -0.09610641747713089, -0.02477947808802128, -0.24101711809635162, -0.07815864682197571, 0.1147368773818016, -0.011801546439528465, -0.2122090458869934, 0.07218845188617706, 0.03709607943892479, 0.09855262190103531, -0.029960887506604195, -0.11662326753139496, -0.13692428171634674, 0.21505679190158844, -0.12301855534315109, 0.029509076848626137, -0.29346996545791626, 0.2624373435974121, -0.09039256721735, 0.05785459652543068, -0.07914894074201584, 0.22009806334972382, 0.24120469391345978, -0.08792846649885178, 0.0038403570652008057, -0.017183728516101837], [0.1438201367855072, -0.1380690038204193, 0.0847029983997345, 0.07134468108415604, -0.04166863113641739, 0.005930378567427397, -0.03829658031463623, 0.06498435884714127, 0.23705151677131653, 0.08008622378110886, -0.048480916768312454, 0.010594453662633896, -0.020022908225655556, -0.024955859407782555, -0.03962542116641998, 0.03517180308699608, -0.061237916350364685, 0.14188870787620544, -0.07347745448350906, 0.10045169293880463, -0.02889801375567913, 0.06496730446815491, -0.056753505021333694, 0.01531823631376028, -0.18560786545276642, 0.12179692834615707, -0.00616108113899827, -0.03381802886724472, -0.24725612998008728, -0.001999635947868228, -0.0975629985332489, 0.03793080896139145, 0.04685330018401146, -0.005889497231692076, -0.009328084997832775, -0.05856400355696678, -0.046310048550367355, -0.12953002750873566, -0.03485604748129845, -0.1141507625579834, -0.06402892619371414, -0.0037141195498406887, 0.06736811995506287, 0.1294810026884079, 0.05741272121667862, -0.026068925857543945, 0.032505717128515244, 0.08797217905521393, 0.06083670258522034, 0.13033421337604523, -0.010280678048729897, 0.040642399340867996, 0.10330190509557724, -0.049601562321186066, -0.06821220368146896, -0.19762928783893585, 0.014011855237185955, -0.05782058835029602, 0.154390349984169, 0.030641870573163033, 0.11635755002498627, -0.1625795066356659, -0.26454460620880127, 0.09825822710990906, 0.05872131884098053, 0.147913858294487, -0.05970320105552673, -0.02983061969280243, -0.14262616634368896, 0.05446672812104225, 0.10715412348508835, 0.06712089478969574, 0.04478396102786064, -0.13132420182228088, 0.02475881017744541, -0.04020220413804054, 0.015796642750501633, -0.0015107708750292659, 0.0628618448972702, 0.017820952460169792, 0.01387727539986372, 0.07791667431592941, 0.06384464353322983, 0.16138945519924164, 0.05176565423607826, 0.13919325172901154, 0.01556096225976944, 0.06232897937297821, 0.03436322882771492, -0.13537026941776276, 0.0017449568258598447, 0.2154565006494522, -0.04068601503968239, -0.06204776093363762, -0.01082727499306202, 0.0482066310942173, -0.15797795355319977, -0.10960953682661057, -0.05723711475729942, -0.12718771398067474, -0.23027165234088898, 0.03669014200568199, -0.08836216479539871, -0.08436870574951172, -0.046954914927482605, -0.06913542747497559, 0.033762238919734955, -0.06240597367286682, -0.22286833822727203, -0.012856229208409786, 0.02913101390004158, 0.09175874292850494, -0.09607769548892975, 0.022260280326008797, -0.08045035600662231, -0.06516215205192566, 0.04381415992975235, 0.0647062361240387, -0.07762424647808075, -0.13852021098136902, -0.008922519162297249, -0.016679037362337112, 0.037920426577329636, -0.14349424839019775, -0.006195855792611837, -0.002262977883219719, -0.003321012482047081, -0.08525323867797852, -0.036714114248752594, -0.0677437037229538, -0.04332627356052399, 0.06063954904675484, 0.10729730874300003, 0.07387368381023407, 0.058515626937150955, -0.193057119846344, 0.070635586977005, -0.019137760624289513, 0.0016844189958646894, -0.008312021382153034, 0.026817724108695984, 0.13198859989643097, 0.050381388515233994, 0.31524431705474854, -0.12199713289737701, -0.032511208206415176, -0.0962458923459053], [0.05801224336028099, -0.05300109088420868, 0.0825888067483902, 0.0928940698504448, 0.012514913454651833, -0.09582976251840591, 0.01566927693784237, 0.08529321849346161, 0.05345429480075836, -0.026767946779727936, -0.11495982110500336, -0.08209957182407379, 0.05011359602212906, -0.14823612570762634, 0.1489386111497879, -0.19642286002635956, -0.03398819640278816, 0.06603868305683136, -0.08258716017007828, -0.11170341819524765, 0.049325618892908096, -0.01292086485773325, 0.028875794261693954, 0.18475572764873505, -0.04928072169423103, 0.12319901585578918, -0.016384033486247063, 0.05404144525527954, 0.08023492991924286, -0.049943726509809494, -0.10787555575370789, -0.013932324014604092, -0.06973621249198914, 0.060868825763463974, -0.0006259193178266287, 0.07065223902463913, -0.02757211960852146, -0.026709144935011864, -0.1550005078315735, -0.09508517384529114, -0.019052457064390182, 0.07807490229606628, -0.11330307275056839, -0.05731065571308136, 0.0035770621616393328, -0.036955684423446655, -0.10237576812505722, 0.011317409574985504, 0.034378137439489365, -0.09755273908376694, -0.07317859679460526, -0.04393444582819939, -0.18859383463859558, 0.01928608864545822, -0.05170892924070358, 0.0928591936826706, 0.06544353812932968,